#SAVED WEIGHTS 
DIMENSIONS 784 128 10
Wxh 128 784
0.46175638 -0.17983838 -0.58457032 -0.33456589 0.93551182 -0.98776564 0.92740959 0.87973078 0.89438984 0.87416430 -0.20565132 -0.30496394 -0.41183407 0.01308081 -0.76806584 0.54107176 0.31978542 -0.68650622 -0.24359591 -0.72047463 0.38989596 0.61045554 -0.98994965 0.04627031 0.48796897 -0.71595459 -0.03654340 0.08910962 0.15420052 -0.59017291 0.24672762 -0.63058582 -0.97863118 -0.67791338 -0.64381722 0.08148476 0.94886746 -0.51146855 -0.24205120 -0.58358470 -0.17159886 -0.54306677 0.80035905 -0.92820499 0.08647227 0.27959475 -0.75633377 0.30768970 0.97181619 -0.57997141 -0.24572519 -0.07307513 -0.33277958 -0.11357510 0.00827113 0.99796163 0.26080973 0.81916807 0.01531981 -0.01746892 -0.14271219 -0.38413525 0.44048341 0.93706151 -0.58514380 -0.71811456 0.08125850 0.10333634 0.17256467 0.59824147 0.47927905 -0.63163717 -0.63931677 0.51953952 -0.48341467 0.97996563 0.65011135 0.72179505 -0.65079906 0.27942924 -0.98849810 0.25749490 -0.58404404 0.76071457 0.41408845 0.44674329 0.01894774 0.97312195 -0.69387752 0.44136620 0.70888638 -0.67991262 0.22363983 -0.10304536 -0.93316592 0.00275911 -1.08792336 -0.00175083 -1.12106714 -1.08140671 0.17893876 -0.76746202 0.03399390 0.67082848 -0.26026942 0.20259137 -0.21070778 0.97630019 0.60131770 -0.13777445 -0.24864986 -0.45741335 0.45964786 0.77348885 -0.91278095 -0.08232545 0.73823446 0.79039661 -0.88074126 0.64610944 0.09007352 1.26940924 -0.67525928 0.25342091 0.23370881 0.41375125 0.62313092 -0.88074759 -0.62987162 0.27795908 -0.56590166 0.16537222 -0.26457122 -0.90533628 0.19162894 -0.10583172 0.11792756 -0.57353628 0.36406922 0.43566125 0.48673925 0.85820522 0.17852784 0.27387264 -0.82379475 0.49180263 -0.44672341 0.75586370 0.33640048 0.97202460 -0.73449902 0.43411684 -0.48580538 -1.42495990 -1.00313154 -0.37483669 0.33926340 -0.41164561 0.33248496 -0.87480482 -0.26498008 0.47220087 0.14870794 -0.06452821 0.64622727 -0.18728702 0.52047804 -0.34964296 0.02543765 -0.04264829 -0.73900012 -0.95910057 -0.16583718 0.33868742 0.28268911 0.35513085 -0.40665817 0.60832761 0.71282386 0.94598377 -0.41954113 -0.21852691 -1.19483960 -1.04819750 -0.41561375 0.03115975 0.22923930 -0.34245953 0.85819850 0.38221201 0.81084326 -0.32992453 -0.59633905 -0.15434562 0.55532298 0.17805497 0.27589379 -0.39338919 -0.86385384 0.85793435 -0.59326336 -0.51478854 -0.73658371 -0.32766079 1.07191471 0.52763650 -0.04905834 -0.56005691 -0.99783047 0.61634862 -0.66411924 0.19062008 -0.72340986 -0.77550671 0.71730359 0.06342908 -0.50949179 0.69763442 -0.17763754 -0.44056752 -0.67922000 0.15188267 0.59563754 0.01264032 -0.30490989 -0.89378893 0.21434500 0.32005527 0.03607722 -0.05812467 0.98279983 0.70944510 0.02567655 0.11488927 0.61909053 -1.01036400 0.30140806 0.01605315 0.49000586 -0.63692915 0.20423827 -0.11428663 0.29872858 0.05786327 -0.01235304 0.54578687 -0.91510474 0.66178975 -0.75919064 -0.93081344 -0.80869069 -0.89776242 -0.06009226 0.63813790 0.94025762 -0.37381857 -0.40001892 -0.64574539 0.81574488 -0.64442539 1.03033152 0.49191730 -0.15465811 -1.19913572 -0.01900877 -0.97964906 0.47603051 -0.70217192 1.06815772 0.79618339 0.67376686 -0.88840067 1.01090772 0.81870821 -0.73616935 0.41206376 -0.65523681 0.23618169 0.50939081 0.58895358 -0.07723388 -0.75679269 0.01660139 0.46927380 -0.55265644 0.42800184 -0.25997860 0.57071428 0.75339526 -0.53397305 -0.33589288 -0.86626602 -1.36930690 -0.46426275 -0.96610535 1.05791926 0.27561450 0.11195490 -0.89251111 -0.20970784 -0.85733933 -0.37705113 0.36516846 0.24165728 0.03545193 0.55190763 -0.77433133 -0.02945044 0.92236252 -0.51835648 -0.10066568 0.01423519 -0.61727299 -0.33557451 0.75405259 0.63582550 0.29659843 0.27195134 -0.14767967 1.02876159 -0.78849520 -2.14436497 -0.85678060 -0.45734420 -0.09261811 0.04718160 -0.41954987 -0.79304945 -0.63709506 -0.15072285 0.71708790 -0.10793761 0.18893598 0.31517342 -0.61284977 -0.48759793 0.70384228 -0.89621704 0.77881968 -0.87761794 0.35748113 0.04065459 -0.60766327 0.69321873 -0.63257864 0.16175838 0.00229870 0.38984975 0.65611331 -0.91806243 -1.21371212 -1.44827987 -0.19520913 -0.57000408 0.07339038 0.99609280 1.01353492 0.93027371 -0.58317774 -0.56126324 0.90392026 1.03576084 0.47064178 0.63401416 0.16396431 -0.10206885 -0.17070224 -0.04681655 0.27240093 -0.05099296 0.87299256 0.22558801 -0.00425384 0.08542287 0.98229826 0.61711259 0.19941372 -0.12572639 -1.03285304 -0.89497092 -0.13701141 0.25017820 -1.02339357 0.06774780 0.74545586 0.14825270 0.54743931 -0.05433105 0.07078754 0.37802278 -0.35817492 0.83743969 -0.47565815 -0.21179413 0.92779907 -0.35654305 -0.06726812 1.06981805 0.18124777 0.10583578 -1.18757236 -0.24578470 1.09399359 0.92441494 0.00270454 -0.71072432 -1.50336868 -0.83010875 -0.58311200 -0.23477807 -0.60246932 0.12136134 -0.54028930 -0.16382970 -0.98347315 -0.23010865 0.36181628 0.61077306 -0.85829684 0.12885515 0.89413595 -0.44969457 -0.31906838 0.06740745 0.58047267 -0.13799115 0.19560623 -1.19780035 -0.79839606 0.32888800 -0.33461414 0.53441025 -0.24694701 0.24788671 -0.46752279 0.49082973 0.09177460 0.56371475 0.21523736 -0.06962979 -0.98014249 -0.47821579 -1.17487303 0.56568524 -1.19221572 -0.91610548 0.74149611 0.22861564 -0.01632804 0.70164369 -0.61377229 -0.04124196 -0.15221321 -0.85739368 -1.10952461 -1.15419648 -0.40179957 -0.88672395 0.35821249 -1.14010712 0.82003835 0.72532619 0.97986034 -0.73711469 -0.42521853 -0.48600490 0.71186023 -0.82869239 -0.60439972 0.30625175 -0.89666213 -0.78122208 -1.22268679 -0.45753713 0.45039694 -0.59881274 -0.09923386 -0.14553405 0.02968987 0.32389899 -1.22429258 0.00531473 -0.33677345 -0.54850135 -0.98265474 0.48140018 -1.45722438 0.77596785 0.73824456 1.18751892 1.33288267 0.49105049 0.14098045 0.85636439 0.20411522 0.27103408 -0.32075551 -1.01978106 0.32697361 0.70478655 -1.09466393 0.60115162 0.51831076 0.50568775 0.29794579 -0.67187245 0.94586893 -0.73099154 -1.12042208 0.18257142 -0.94669937 0.00091624 -0.67779082 0.24251362 -0.07101035 0.52353211 0.74773333 1.59359353 1.07633109 0.40935617 0.24910453 0.56053670 -0.61340114 0.14753692 0.74348084 0.18038727 0.02100659 -0.66158173 -0.47554735 -0.24895300 0.79497489 -0.46792503 -0.32344317 -0.03445978 -1.01306509 -0.37132955 0.30224857 -0.54847245 -0.81368932 -0.95021168 -0.44030650 0.57434571 -0.22234868 -0.84953236 0.37401685 0.79105311 1.17156934 0.15820234 -1.01643957 -0.60987367 0.27780389 1.20599984 0.02161112 0.42843140 -0.55526897 -0.10165397 -0.93250074 -0.55676415 -0.67983824 0.42217989 -0.67694416 0.00673666 -0.94256385 -0.36879316 -1.11147342 -0.57351631 -0.69728660 -0.95162558 0.29929648 -0.05473253 0.88237899 -1.28177646 -0.72106117 -0.57173408 0.65459924 1.61389249 0.05766132 0.48877574 -0.33888839 -0.46065946 0.54892080 -0.89594377 0.79233882 -0.15748712 0.43652574 -0.08456603 -0.77684100 0.00940634 0.34037481 -0.75486645 0.91493695 -0.02847758 -0.88692338 -0.12938872 0.89815718 -0.22258192 -0.68111136 0.31847011 0.37589464 -0.14789158 -1.34320145 0.58638224 0.14423400 1.19610071 -0.37730917 -0.56270791 0.65087396 0.49720747 0.62814562 0.43487808 0.85136049 0.17041967 -0.72112771 -0.13238508 -0.85067091 -0.40618784 0.21613973 -0.75888887 0.33468970 -0.55480781 -0.90330884 0.87145148 0.59754621 -0.35359670 0.18869081 -1.00771230 -0.66760372 -0.20890483 -1.01981925 -1.00606960 0.62718751 -1.41061090 -0.50864530 1.30009278 0.86754417 1.06916277 -0.54291408 0.79550752 -0.99346375 -0.92189308 0.43022056 -0.15833619 0.29587235 0.73398178 0.73208993 0.90276565 -0.51334407 -0.43498733 -0.17621271 -0.52024120 1.09451693 0.52899060 0.08206329 -0.62405488 -0.15403101 0.91962747 -0.12562688 -0.15982447 0.31980525 0.21374410 1.14866762 0.59866772 -0.90421253 -0.79365883 0.61332834 0.32684038 -0.37013355 0.52146852 -0.24952232 0.92511686 -0.13307343 0.96370561 0.43838073 -0.37169955 0.04133496 0.99055129 0.29960813 -0.91300033 -0.71225854 0.21294514 0.50785538 -1.09643400 0.69420718 1.54400087 -0.44069947 -0.68597002 -0.19710955 0.30202394 -0.09825859 -0.20502105 -0.16688812 0.36846161 -0.68457709 0.15961430 0.53591186 0.47407351 0.38505896 -0.93935648 0.28938188 -0.32729783 0.57927553 0.37533646 -0.03993439 0.77509939 0.73309080 0.54566350 0.01674406 0.14079031 -0.10227295 0.41002825 -0.64388185 0.51323316 0.81782854 0.16377506 0.32252395 0.90476190 0.51909672 0.72073692 -1.14245241 0.41111160 -0.98053075 0.65261750 -0.16149012 -0.38383060 0.34343715 -0.90432886 0.79566482 -0.25363085 -0.80696089 -0.97696209 -0.08707687 0.64163705 -0.71645916 -0.53918638 0.15069439 0.78738201 -0.40986697 0.61586278 -0.43930274 -0.74269575 -0.85966182 -1.09912697 -0.63528956 0.08426879 0.29447096 0.38098017 -0.56141450 -0.94562162 -0.14642221 0.00569985 -0.65025507 0.99696087 -0.31723549 0.73893486 0.41305630 0.56499464 0.13429023 0.06116658 0.65421618 -0.74181108 0.32795683 -0.30910684 0.40281020 -0.24136163 -0.77516979 0.88969422 0.25749397 -0.47767189 0.03426210 0.35370297 -0.97477122 -0.94817726 0.39017467 0.48728886 0.46021736 0.33571193 0.23649821 0.82868091 -0.83630403 0.99306561 -0.98475608 0.34152548 -0.69967204 0.65996010
-0.00756555 0.45275139 -0.82298247 0.81356699 0.59879280 -0.22905198 0.97957854 0.43487729 -0.45917816 -0.44856984 0.16508206 -0.08612141 -0.85917724 -0.19979721 0.77588586 -0.03921732 0.34278694 -0.58301560 -0.66070446 0.98936254 -0.51456089 0.93426206 0.88988504 -0.54660557 0.79178984 0.34597060 -0.29075281 0.18010202 0.87558312 -0.48299256 -0.15936104 0.76243386 0.03447948 -0.11096518 0.07067014 0.72285146 0.42253665 0.78362505 -0.44017873 -0.86215063 -0.89537552 -0.64143001 -0.86705619 -0.56607947 -0.46802194 0.68906153 0.23102408 -0.84877704 -0.58403347 0.82279530 -0.50721786 -0.25875476 -0.38453522 -0.86303880 -0.37317366 0.40375832 -0.83486640 0.05384426 -0.78254874 -0.15499736 0.73730452 0.26648467 0.35554489 -0.76287227 -0.33871121 -0.59181096 0.63230663 0.32891978 0.00074072 0.22340951 0.02047534 -0.53630470 0.78572198 0.69846274 -0.80769834 0.79906520 0.87429875 -0.52344483 -0.17944856 0.69609357 -0.16087081 -0.22872023 -0.73972975 -0.19666328 -0.58023221 -0.77018634 0.81848130 -0.43668614 -0.52525218 0.91110021 -0.77942015 0.85420464 -0.59642574 -0.51208318 -0.17150729 0.95143329 0.69194317 -0.35063309 0.81545726 0.54694550 -0.74212305 -0.07386015 0.67965972 -0.57494912 0.75870953 0.21597993 -0.32691078 0.49438309 -0.20476406 0.52437746 0.65820129 -0.11348068 0.55481706 0.17878961 0.15915191 0.22741798 0.66433378 -0.03822023 1.06626526 0.17646582 -0.11736751 0.07588625 -0.51354951 0.00083259 1.30701799 -0.44172613 -0.15905151 -0.13668804 0.18296116 0.62669224 -0.40816673 -0.06571607 -0.53076387 -1.03427768 -0.06356920 -1.05706317 -0.94751443 -0.81887149 -0.99648492 -0.16700262 0.10535052 -0.74370221 0.68793091 -0.69920309 0.59193049 0.81134932 -0.56895785 0.12582394 1.31761772 -0.35216107 1.10916181 0.12774411 -0.20956459 0.62153627 0.40934419 -1.07585200 0.08138087 -1.71597247 -0.91357280 -0.38995116 -2.00502221 -0.67416280 -0.22645031 -1.11177694 0.57638987 0.67666250 -0.87005036 0.43241178 -0.55513095 -0.01493914 -0.27905072 -0.46154083 -0.04262929 0.42710482 0.71927297 0.62599919 1.26608927 1.11763644 0.91330838 1.00841635 0.02453836 1.48759609 -0.40262262 0.54960617 -0.75634039 -0.40156262 -0.37492221 0.46310315 -0.24074299 -0.85277922 0.65735357 -0.87557273 0.64175030 0.02348411 -0.95723354 0.33602407 0.07062934 -0.43041907 0.62540606 0.48009262 -0.18148785 0.26632155 -0.58470173 1.19754351 1.22012616 1.35768761 1.65832562 0.95171461 0.04352563 0.10406113 0.51227146 -1.18020680 0.99225532 -0.96218861 -0.52330566 0.07035726 0.68132587 -0.22955080 0.06883517 -0.31076243 0.54822929 0.20567361 -0.87440094 0.08212207 -0.07647622 0.47563611 0.80053532 0.30890664 1.11893548 1.05520793 1.11918373 0.52081174 1.30918141 1.44617536 -0.23525013 -0.16940342 0.07509417 0.05163730 0.59542046 0.61298465 0.02448049 0.43942951 0.17383397 0.75338895 -0.58001060 -0.02039569 -0.59955758 -0.65176245 0.49932328 0.70256519 0.48213385 -0.88784335 -0.77564185 -0.67031521 0.63593584 0.08685105 0.99280546 0.26664444 0.70849166 1.13243578 1.36037634 -0.48253229 0.49974440 -0.01669019 0.38370192 -0.36957462 0.30319714 -0.02254881 0.85905946 -0.02342757 0.18511383 0.37018466 0.80109662 1.13273808 0.01512308 0.67038829 -1.22220065 -0.53077227 -0.59865759 -0.70910391 -0.36827843 0.60788085 0.95767098 -0.08872650 -0.21941770 1.53238696 1.40389521 0.89245194 0.11696136 0.56129066 -0.81610515 -0.28936397 -0.65529361 1.64652163 0.87404076 -0.68556430 0.23172680 -0.12488071 1.20976930 0.76230431 -0.49825693 0.48500457 0.55339650 -0.90368190 0.10179383 0.33258294 -0.57069750 0.49022704 0.25300829 0.30722249 -0.63200946 0.31490737 0.91612428 -0.40004540 0.72043417 1.01348719 -0.38990906 -0.91065820 -0.80298982 -0.27480748 -0.56595061 0.14356044 0.22155982 0.67819823 -0.03765655 0.52172120 0.75954079 0.95829399 0.05653814 0.88126895 0.60946098 0.52808852 -0.53530150 -0.29036957 -0.41370012 0.58217343 -0.11927514 0.64250069 0.77936176 -0.27733666 -0.00455427 -0.57292680 0.36411321 -0.66837981 0.58657350 0.34907970 -0.68997293 -0.09723392 -0.77239975 -1.21087131 -0.90439955 1.03349358 0.93480325 0.24188874 -0.33490680 -0.66211503 0.79926575 -0.01429954 0.58148473 0.74042316 0.97263734 0.21838022 -0.06395678 0.37337532 -0.07246845 -0.73600171 -0.18852635 -0.17982707 -0.50826859 0.17107929 -0.75238378 -0.74749307 -1.08279706 -1.07777234 0.05055194 -0.10201048 -0.26796788 -1.35934894 -1.49459405 -1.50700641 -0.43070835 0.24458917 -0.50093699 0.19738362 0.40714949 0.94424225 0.04674828 0.22107656 0.98831136 -0.34193667 -0.35896517 -0.77625233 -0.39304162 -0.19593208 -0.55052812 -0.64448133 1.01698892 -0.08964459 0.45848499 -0.27514560 -0.88193967 0.14698121 -0.55592591 0.51829820 -1.50767947 -0.30126712 -0.39192087 -1.08686145 -0.01487011 -0.47488431 0.14674197 0.17659632 1.39129478 -0.49650788 0.50527856 0.55825922 0.57418270 -0.42705839 -0.24295045 0.10309035 -0.45456578 0.21031713 0.09512170 0.32360420 -0.68056287 -0.61668337 0.43674142 -0.46894447 -1.12476034 -0.41045648 -1.28169890 -0.16223601 -0.53833601 -0.72854835 -0.55459619 1.16656057 0.23834760 -0.73592594 0.70601612 0.93691691 1.50580309 0.97939724 0.76977763 0.61874212 -0.10089005 0.42266615 0.69043567 -0.19129577 0.36841576 0.77768345 -0.86718687 0.15365933 1.11323841 0.81428530 0.83309458 0.14960999 -1.11020881 -0.59372563 -1.12993144 -0.36125385 -1.24009703 -0.52576221 0.78565701 1.55094669 -0.12060395 -1.12558955 0.63986493 -0.08275691 1.00197081 0.00146951 0.12056012 -0.41566195 0.16055079 -0.69978716 -0.65404105 -0.34609930 0.84417190 -0.41902442 -0.00434724 0.54712370 0.73392863 0.29487561 0.59233242 0.23577472 -0.94487365 0.22542868 -1.61186801 -0.14410435 0.45542313 0.41158021 -0.32586723 0.29944051 -0.91421164 -0.07319654 -0.70732043 1.25692099 1.61877187 0.94076783 0.73479932 0.41013296 1.23917476 0.54838326 -0.25353154 -0.47140645 -0.09617565 -0.81205481 -0.91551138 0.42404091 0.69217642 0.49797695 -0.95633920 -0.24710772 0.48763451 -1.08044935 -0.50868657 0.92866367 1.19478200 -0.42794531 0.46759164 0.19995996 0.31808237 -0.17063466 -0.73287338 1.03542217 0.49559401 0.62963611 0.58476710 0.88683550 -0.57990115 0.91773348 0.42406215 -0.09631317 0.22184965 0.36737915 -0.31437682 -0.38635809 -0.41115829 -0.35350460 -0.03890952 0.72700310 -0.33927379 1.00471740 0.01220936 1.29703884 1.48114422 0.09578694 0.24578024 -0.32162642 -1.95306356 -0.12515371 -0.59953356 0.16598916 0.33029601 0.05413601 0.75615099 -0.67557185 0.64024179 0.69936291 0.13570769 0.43263276 0.32041296 -0.68328326 0.37260142 -0.45372070 0.63276372 -0.11168484 -0.18081952 0.04650555 0.13509888 -0.49821984 -0.21661975 -0.03319340 0.20423163 -0.16604874 -0.71056816 0.36971245 -1.55624290 -0.90000229 -0.08645617 -0.61263593 0.97177623 0.59865179 0.62524444 -0.39830920 -0.09811193 -0.63540662 0.24166750 -0.20604622 0.60104685 -0.83240773 -0.77259576 -0.77189172 0.62806328 -0.13383988 0.95361603 -0.22818523 0.78109256 -0.17177505 0.00208764 -0.56218173 -1.08912635 -1.33245924 -0.16602394 0.19623030 0.71632174 -0.58647329 -0.44476421 0.21134182 0.55456208 0.91399971 0.08327334 -0.51929867 -0.98947362 0.30962750 -0.63117469 -0.00707604 -0.37587878 -0.58975935 -0.67136906 -0.78025273 0.92491062 1.08884758 0.44981807 -0.83588445 -0.18250894 0.06897963 0.41587990 -0.28403724 0.37018246 -0.37581371 0.73328573 -0.20358931 -0.19702266 1.04613763 -0.57177459 0.66542600 0.41464907 -0.40093700 0.06713674 0.12131823 0.18796248 0.08311973 -0.02931320 0.62677084 0.77182010 -0.54824799 0.87716582 0.85894714 -0.02946320 0.55534067 -0.75465397 -0.87878962 -0.00528192 -0.04517094 -1.23144150 1.26372100 -0.40581963 -0.78466582 0.56502595 0.89837096 0.07111604 -0.19022374 1.20931878 0.78374539 0.13776252 -0.15635008 -0.62379564 -0.33615587 0.56325609 -0.13127050 0.76643937 -0.52846054 -0.54068017 0.73155458 -0.64913707 0.13206131 -0.46707477 0.69450860 0.15533243 -0.05568861 -0.32250209 -0.43635854 -0.80442165 0.01222405 0.03736991 0.15582593 0.51679558 -0.37931531 -0.79862223 0.63894913 0.22732452 0.73006316 0.13946802 0.44276747 -0.04831231 -0.14783293 -0.76102575 -0.66100170 -0.63169106 0.60954617 0.54970147 -0.58320961 0.68042559 -0.56815756 0.81814441 0.75448310 0.47108813 -0.31493331 1.00728397 0.62487276 1.13975664 0.11589065 0.61522656 0.14903908 -0.00751043 -0.29707015 0.53036487 0.27794106 -0.24103160 0.97462710 -0.25929607 -0.55004385 0.97511900 -0.87607132 -0.14738987 -0.83132435 -0.39381163 0.40360148 0.86285655 0.83294412 -0.37660444 -0.78069046 0.67118340 -0.92913150 0.28616150 0.50150576 -0.16392096 -0.27005370 0.28166609 -0.02137378 0.15530514 -0.38907454 0.10949283 0.42287710 0.07676364 0.41757488 0.25766458 -0.69650718 -0.43454546 0.77623936 -0.64748469 -0.98416728 0.95334162 0.95193024 0.14655994 0.90276339 0.58478555 -0.64309808 -0.11046572 0.12209978 0.93864905 -0.61900217 -0.07848400 -0.20770165 0.81447574 -0.54876611 0.20327183 0.85057556 0.91705382 0.11691350 0.97492177 0.43345730 0.09925112 -0.20930651 0.81504350 -0.86849296 -0.66912573 -0.71083236 0.50292597 0.83792523 0.57720432 0.17576539 -0.58313500 -0.27339108
0.04822397 0.60455085 -0.61042664 0.66021578 -0.60303365 0.92395651 0.97847723 -0.00219977 -0.86039309 0.56891852 0.69752690 -0.47784197 -0.32787530 0.07743301 -0.32295005 -0.10360171 -0.46132511 -0.30624690 -0.19825861 -0.92639927 -0.19892149 -0.94703873 0.04366260 -0.38190228 0.13057585 0.45971634 -0.87450096 0.15768650 -0.17161545 0.11020307 -0.07253830 -0.34591183 -0.52610818 0.48702778 0.95130282 -0.28021757 0.70499975 -0.14337862 0.37645934 -0.42333231 0.78297389 -0.68859204 0.72378422 0.32882885 0.86208756 0.07680813 -0.93464784 0.43826712 -0.87345589 0.10548046 0.87152920 -0.19981036 0.06849471 0.59568593 0.75217158 0.42165433 0.76187492 -0.77242772 -0.28140436 -0.42950228 -0.44108675 0.18749797 0.07540292 0.85781310 0.38713254 0.58550387 -0.14989235 0.24074528 -0.17520595 -0.00570854 1.03695662 -0.59513044 -0.48353442 0.76739907 -0.52597745 -0.22594827 -0.34094343 0.11402856 -0.90068323 -0.53340559 -0.47552522 0.80536672 0.70539353 0.79839909 -0.07529820 -0.06815207 0.25222043 0.53611023 -0.62024390 0.35079608 0.92973397 0.35064880 -0.73130446 0.39733694 0.72291824 -0.44306831 -0.87112718 -0.78213605 -0.70070491 -0.40845813 0.84883510 0.23402913 -0.85050341 0.35937159 0.75863377 0.27369745 0.55757694 0.43326062 0.59859903 0.47720396 -0.38017277 -0.80673898 -0.53504150 -0.10123571 0.90349596 -0.29465278 -0.74042519 -0.82705272 0.78762011 -0.80704534 0.87033673 -0.87053288 -0.06368541 0.47005253 0.34775018 0.69186366 -0.13153132 -0.01626112 0.52454248 -0.15297200 -0.48197396 -0.72721308 1.01009321 -0.10887398 -0.45609503 -0.38082253 0.70840460 0.47158939 1.02136441 0.07418601 0.76678373 0.57961174 0.96541368 0.07710238 0.21755256 0.04618254 0.81040681 -0.73373358 0.64404451 -0.82101906 -0.42239769 1.28070139 0.93515601 1.00078689 0.73914299 1.33284572 -0.07086710 1.26214731 0.79518918 1.10488712 -0.39944672 -0.18601525 -0.19404454 1.21903679 -0.56812023 -0.45273749 -0.60421534 0.03985030 0.12316450 0.34650651 -0.10144140 0.05246501 -0.73146013 0.14122891 0.46363182 -0.25932994 0.84566732 0.06189382 -0.63156652 -0.38688417 0.24998397 -0.50205216 -0.24443522 0.42230562 -0.17721061 1.35027103 0.39747307 0.84133660 0.25171923 0.59490517 0.25413088 0.11778575 -0.41496390 -0.34580889 -0.60147549 0.33109088 0.00468088 0.82186923 -0.38689300 0.44241165 -0.71808408 0.78315323 0.60993831 -0.48401381 1.03444387 -0.82628121 0.79955524 0.90294864 0.98277047 0.73953298 -0.73206454 0.10077919 0.02585857 0.09205263 1.18745623 0.09950844 -0.64710625 0.86180194 0.18769450 0.06580439 0.21203837 0.67101112 0.40872595 -0.01447761 -0.11971289 -0.23363296 -0.52909425 -0.64162714 0.88550997 1.02993572 -0.33274547 0.66725737 0.52950456 0.01815516 -0.37504628 0.34578690 0.15684649 -0.17217910 0.15678907 1.07274238 0.16929018 -0.59828119 0.68171763 0.73411511 -0.66742277 -0.06505245 -0.64571378 0.28534269 -1.20995747 -1.27537457 -0.03819030 -0.20195864 -0.39599166 -0.15674649 0.70953137 -0.16913399 0.63269189 -0.03143814 -0.16705515 0.28636216 -0.69895218 0.47548730 -0.62531992 -0.03902419 0.51163487 -0.63848485 -0.61413194 -1.38184081 -0.18379141 -1.00951973 -0.69206601 -0.51132939 -0.23643583 -1.59588284 -0.91714276 -0.71534844 -1.18152743 -0.19643672 0.05178757 -0.06580176 0.62156807 -0.77581972 0.19108882 -0.59767536 0.47634177 0.59941849 -0.03495365 0.63775099 -0.19847230 0.46349777 -0.67029716 -0.07682243 0.15132445 -0.75234153 -0.17767514 -0.02385672 -0.74316356 0.58533272 -0.67516742 0.14972607 0.26918262 -0.52655527 -0.42106416 -0.57445997 0.01022138 -0.66246575 -0.70382285 -0.05081145 -0.30938533 -0.70702982 -0.35310477 0.37567488 0.35398817 0.46355598 -0.45553722 -0.64994381 0.30770974 -0.41342206 0.39130027 -0.17732172 1.11007020 1.18993004 -0.11985703 -0.90142989 -1.09278222 -0.19534375 0.04290333 -0.21458290 -0.36404710 0.19200605 -0.75390343 -0.21787981 -0.41317193 -0.17746090 -0.62681213 0.28664564 0.41733852 0.77177691 -0.13065962 0.99796573 0.10273319 -0.14722026 0.24543159 0.03256902 0.38481041 0.17463917 0.32165582 -0.54347128 0.30737052 -0.77269595 -0.45666902 0.85332436 1.35965176 0.69736707 1.43190396 1.11383090 -0.12411317 0.78147695 -0.32826377 0.86485437 -0.35174746 -0.59005533 -0.14126129 -0.83670917 -0.27307773 0.21669254 0.31544440 -0.61378788 0.82314640 1.02916015 -0.46425448 0.90188010 -0.65031518 -0.61731031 -0.66404233 0.75198241 -0.69503933 0.12805353 -0.33005023 0.74148946 1.02143294 0.78021367 1.00002691 1.35886480 0.49228648 0.65372311 -0.00715825 -0.34929348 0.01716976 -1.28049806 -0.01513420 0.92566364 -0.62458853 0.26671712 0.84315514 -0.78529320 0.72901622 0.22713181 0.61134161 0.65322840 -0.41306576 -0.15235205 -0.46231626 -0.72638884 -0.29980797 0.15919109 0.42329430 0.35376396 -0.89853914 0.67585553 -0.40720474 0.79885134 1.07482284 -0.21149371 1.00405891 0.95093019 0.27094344 -0.00037186 0.18667585 -0.14924157 0.79336332 -0.89660640 0.36090654 0.52089502 0.32247826 -0.61589015 -0.30139603 0.54274326 0.73836623 -0.09480934 -0.01113749 0.74243813 -0.28333014 -0.72544469 0.43293799 -0.05760195 -0.29664815 0.36720162 0.47867192 1.08126073 -0.62194773 -0.73674202 -0.67813936 0.82646322 0.23229170 -1.01602024 -0.60689583 0.40964723 0.92064188 -0.70122289 0.46559597 -1.07009272 -0.43453782 0.49018894 -0.85684357 -0.13212585 0.19077657 0.27641569 0.30418189 0.04591159 -0.99016238 -0.02017730 -1.12039280 -0.40725012 0.01835015 0.73361714 0.59116929 0.15591236 1.06110001 0.50171512 -0.28761964 0.19123898 -1.00138574 0.74406027 -0.82511172 0.19931375 -0.75164147 -0.28386663 0.94376796 0.41990509 -0.61120169 0.53819957 -1.02676119 -0.40381419 0.81305175 0.40057900 -1.14014088 -0.78773166 0.17208160 -0.14233187 0.22042702 0.31325486 -0.81223264 0.61627717 0.46670012 -0.99753312 -0.63816076 1.24383849 -0.60990256 0.08815880 1.06109123 -0.98155275 -0.34508409 -0.17076037 0.02876186 0.24320145 -0.83523324 -1.01076418 -0.01388249 -0.61429705 -0.64982592 0.12468217 -0.48454692 -0.30975213 -0.22731564 0.64040557 -0.34334352 0.41241380 -0.09857899 0.20038744 0.24250981 0.09375343 -0.63599818 -0.94712837 0.34756641 -0.17518117 -0.39499770 0.17976266 -0.32411386 -0.87722252 -1.02403345 0.84484705 0.54027574 -0.03774641 0.68771214 -0.33249966 -0.25178112 -0.98245468 0.29865488 0.15979163 -0.30492069 -0.14233145 -0.41978562 1.67301167 0.36900071 0.40026033 0.22315879 -0.74386939 0.23480505 0.45738136 0.01803004 -0.82885538 0.02127504 0.48414949 -0.55852816 -1.32157627 -0.21225645 -0.75250225 -0.31625599 -0.51299841 0.43234809 0.87072178 0.03398262 -0.73831669 -0.30668267 0.73229118 0.52379532 0.47699483 0.94169198 0.73026458 0.43616376 1.09832948 0.37797888 0.61160416 0.01637256 0.32707022 0.32522716 0.16221572 -0.92009159 -0.64887723 -0.75237826 0.68937476 -0.92247126 0.72995245 -0.91794325 -1.01905565 0.65441082 -0.66843535 0.44479680 -0.51712959 0.13977665 0.40756185 -0.88289282 1.06453132 -0.57955038 1.28747928 0.12518923 0.40651722 0.53502825 0.04465253 0.91445851 0.08497469 0.34998487 0.96130484 -0.20726433 0.41570792 -0.19339751 -0.16019585 0.60558940 0.68447790 0.20713986 0.83633367 0.33725054 0.87380203 -0.52814014 -0.75208769 -0.66377394 -0.52140666 -0.89989482 0.83486015 0.43677888 -0.03485602 0.38730778 1.01108004 0.51842406 0.46558593 -0.11752818 -0.41359454 0.80762878 0.55897986 0.93000335 -0.39267915 0.10524752 0.34301491 0.30169094 0.94078569 -0.44731525 0.21578436 -0.49922037 0.49782846 -0.18265462 0.34220330 -0.01108500 -0.58890602 -0.49885068 0.20020026 0.66426730 -0.34888909 0.44332681 0.79497970 0.44909378 0.33106939 0.58436793 -0.01756941 -0.18785591 0.15594413 0.80398866 -0.05184724 -0.49736560 -0.45150667 0.55076262 1.09610198 0.60766700 0.10583133 0.64717218 0.65150532 0.52703717 -1.03027974 -0.45990123 -0.56469302 0.02943534 -0.77211107 0.64287199 0.01098868 -0.50703498 -0.83957790 0.57040891 -0.14319728 -0.73730797 1.15438234 0.32353069 0.09267623 -0.61821919 0.50339531 0.10933747 0.67983062 0.09627500 -0.17735654 0.69300557 -0.37583778 -0.45324390 0.94497968 0.45216509 -0.18768819 0.87337612 0.26241063 0.54093561 -0.60021540 -0.50542932 0.85962919 0.92061257 0.49661654 0.38840405 -0.88420161 0.45325810 0.70911555 0.18059269 0.90682155 -0.47543988 0.41221744 0.74148341 -0.30347208 0.71066471 -0.64337398 0.26645254 0.40464627 -0.94010130 -0.21544105 0.91944221 0.51555835 0.92965846 0.98629374 0.19463991 -0.09614721 0.23639236 0.41360292 -0.01045436 0.79484938 0.23412938 -0.87857336 -0.46805237 0.80007069 0.25149584 0.62699487 -0.31401912 -0.24938319 0.96634321 0.93631165 1.16178567 -0.06810940 -0.76006477 1.10690240 0.94113523 0.97239558 -1.05981097 -0.48998604 0.30702470 0.59891004 0.08955891 -0.02612589 0.31684114 0.60040727 0.87287808 -0.96552974 -0.78251552 0.05206016 0.74076385 0.27382122 0.53091998 0.68988373 -0.81283279 0.60281989 -0.20390372 -0.86011184 0.69286309 -0.24902569 0.43617374 0.83629140 -0.14998011 0.72527680 -0.59147311 -0.03940943 0.62499885 -0.38142720 0.14023259 -0.86500699 0.55425523 -0.49900723 0.73000709 -0.36837107 -0.34549965 0.61837484 0.39033546 -0.55408326
-0.35528538 -0.87831567 0.66762242 0.01769814 0.68249504 0.14459954 0.21461142 0.73766104 -0.52190637 -0.58042655 0.72074814 0.19902968 -0.95965982 0.77531397 0.14145740 0.45161277 -0.22440376 0.77236698 -0.81607803 -0.77372654 -0.06041232 -0.29056501 -0.98194857 0.54176079 0.71928040 -0.30054926 -0.10891415 -0.50111650 0.58036142 -0.41963617 0.24721412 0.93811162 -0.34935195 -0.42403519 -0.25809471 0.68920985 0.85577493 0.08510936 0.16683468 0.54470201 0.29333137 0.75623633 -0.35387291 -0.35010304 0.86057968 0.06115839 -0.23299751 0.22091323 0.66290100 0.10381650 0.49009417 -0.36808648 0.67113676 -0.15994823 0.94663119 0.37517361 -0.56437943 -0.70223659 -0.15323134 0.94059433 -0.74145612 0.36295565 -0.19600604 0.08081492 0.84108406 -0.49947225 0.70519408 -0.81974874 0.25574712 0.25325630 0.28551944 -0.16560768 -0.80098005 -0.72738282 -0.73578621 0.25573867 0.16635222 -0.15328682 -0.75573612 -0.51417842 -0.29965293 -0.88882699 -0.28024666 -0.80203562 0.02598456 -0.43853123 0.20729226 0.77308186 -0.31025780 0.02352066 0.73588461 -0.68949952 0.86526820 -1.00755434 0.64084528 0.83441726 0.70236888 0.13236144 0.09011596 -0.32622944 -0.46980269 0.56297391 -0.01395275 -0.81375480 -0.55331785 0.03749800 0.13201301 0.82708031 -0.20432641 0.89765057 0.85136078 0.70812348 -0.96353404 0.36366564 0.35664706 -0.63526153 -0.25387571 -0.79617788 -0.86914472 -0.92288752 0.00857574 0.64386047 0.19993472 -0.82243078 -0.15744069 0.78459660 0.36062975 -0.16313097 -0.81430430 -0.48277078 -0.85245834 0.26502895 -0.52636482 1.03632147 -0.58923714 0.17902020 0.17869504 0.05292506 0.59599936 -0.16123832 0.69270061 -0.98388651 -0.36137304 0.41038451 0.90299248 -0.39569457 0.71703502 -0.66710895 -0.34756039 -0.21113478 -0.43150032 0.28628267 0.17609453 -0.20123762 -0.22700023 0.60764844 0.31396320 0.34453861 0.08739785 0.19217706 0.52443659 0.83245404 0.56099393 -0.11289192 -0.29536023 0.52494895 -0.00937877 -0.85086518 0.13439181 0.50409574 0.11890327 0.02992850 0.20542769 -1.01543753 -0.38878692 -0.65357919 0.68488447 -0.66544852 0.10467278 0.10036750 -0.21333841 -0.41108867 0.59757169 0.28553762 0.63548941 0.68073572 -0.94896722 -0.17478414 0.83590261 -0.54932672 -0.32052041 1.15333996 -0.59419785 0.64636390 -0.21389235 0.30558640 0.75348586 -0.15159485 0.13293682 -0.54305177 -1.06705273 -0.27328067 0.50829426 -0.53573310 -0.05351429 0.08696425 0.33581347 0.77552849 1.00260466 -0.37943749 0.21999329 1.04129338 0.36237928 0.69543999 0.01950198 -0.30923312 0.95024924 -0.33996840 0.41004994 -0.45445468 -0.14895277 0.48243233 -0.97533358 -0.07879246 -0.73076489 -0.73408056 0.03585227 -0.90625009 0.48850925 0.85995305 0.13752573 -0.01110035 0.11755887 0.89288943 1.46928828 1.44154879 -0.31791786 0.78995392 1.22484576 0.42818830 0.46600606 0.56926590 0.23981084 1.11445023 0.94622741 1.20590573 0.01029377 -0.52700286 -0.30399286 0.61602857 0.67743712 0.78087161 -0.49043406 -0.31910595 0.69892286 0.24907540 -0.29409851 0.43012687 0.59056793 1.14492151 0.90274097 0.93424011 -0.21793367 -0.07633928 0.88689265 -0.83043016 0.42396058 0.68687582 -0.47939537 -0.18435716 1.03968441 -0.21833981 0.97670944 0.18918316 0.76990151 -0.09258762 0.82293012 -0.46194870 -0.43331351 0.17198564 -0.24704947 0.86371548 -0.53774381 -0.64485804 -0.05599531 -0.94895071 -0.53117624 0.05663296 0.25649528 0.31608628 0.55815265 0.67326105 -0.04239865 -0.18445653 0.01441718 0.53598684 0.34132864 -0.39650335 0.62604650 0.83195172 0.03058138 0.15028280 0.33778272 0.09340678 -0.67063025 0.16317767 -0.69432734 0.75132473 -0.94278455 -0.10204357 -0.99236318 -0.34670721 -0.40009852 -1.26173290 0.11326447 0.37715389 -0.74626009 -0.20185755 -1.34503153 0.07312767 -0.21599283 -0.39915789 -1.24879250 0.06965826 0.37352160 0.27431633 -0.87016607 -0.87869490 0.50697373 -0.12784723 0.55354938 1.00792741 0.00687647 0.71603424 0.18618088 0.28261107 -0.73847518 0.55590854 -0.73707509 0.31492681 -0.31581919 -0.30892208 -0.25618432 -0.41678251 -0.15041665 -1.20351423 -0.47585067 -0.70744549 -1.27334811 -0.50213446 -1.42863149 -0.24581316 0.59576284 0.16710082 1.02216987 0.25331032 -0.10293928 0.08067479 -0.60906122 -0.45502929 -0.43037322 0.81941034 0.33543418 0.41076084 -0.70498860 -0.06418542 -0.18230102 -0.91490785 -1.00215464 -0.34683437 0.27421314 -0.42124107 0.78911101 -0.92597897 -0.77458659 -0.92654824 0.08621254 -0.33012979 -0.12652835 0.40000134 -0.53990202 0.65073290 1.10613392 0.12788327 0.51178192 -0.04663723 -0.31533986 -0.59462063 -0.66981761 -0.11772519 -0.47484456 0.28367595 -0.93968476 0.18403110 0.67866014 -0.69703272 -0.07679745 -0.71526120 0.01207270 1.04611403 0.44537106 -0.82419364 -0.11528381 -0.25779322 -0.03080983 0.22636852 0.53241712 1.30626215 1.31475827 0.26643319 -0.24076767 -0.36654991 -0.76671731 0.68617253 0.04359642 0.69798665 0.19751260 -0.24528968 0.69217131 0.67910775 -0.51751795 -0.91760978 -0.41166557 -0.50318498 -0.83716462 -0.76969209 -0.68037954 0.28558874 0.67088738 0.47017905 -0.92616642 0.48495467 0.20184444 0.63577876 0.49036610 0.24753857 0.65321896 0.27587751 -0.33346788 0.25371588 0.14238672 0.17973568 -0.64192800 -0.28662869 0.18680925 0.33793273 0.04252340 0.67726526 -0.67630932 -0.82904183 -0.16407813 -0.20095630 -0.28504040 -0.25020575 0.20559572 0.51457040 -0.31469762 -0.96995087 0.61264713 0.96010585 -0.12925165 0.81597822 0.37933309 -1.04560060 0.41140546 -0.74312891 -0.63903812 0.24407374 0.32630968 -0.37479076 -0.56771687 0.74966101 0.35471936 -0.74985988 -0.93701505 0.86359685 0.06106362 -0.57313745 0.69093762 0.16624466 0.11364839 0.32778554 -0.03453048 0.45185834 -0.80565904 -0.05576979 0.22517546 -0.19991302 0.53581292 0.91621721 0.14378982 0.27592279 -0.96212655 0.55624516 -0.56684716 0.96297525 -0.58194149 0.02159491 -0.99538616 -0.94798032 -0.89546225 0.37338058 -0.51049767 -0.06735688 -0.49253493 -0.14093880 -0.08081452 -0.87348678 -0.35753161 0.61758308 -0.38604347 0.12426930 -0.43773924 0.58124199 -0.27630647 -0.17710235 -0.22311249 0.94101630 -0.45624737 0.97422753 0.58505480 0.35817071 -0.23048139 0.25279448 0.41622215 -0.27371656 0.19098276 0.30459275 0.05047467 -0.95465794 0.23472289 -0.18460947 0.94837672 -0.08905199 0.43578608 -0.48269039 -0.91982289 -0.88607665 0.31138661 0.80647981 1.00646552 -0.11221303 1.08622639 -0.10368235 0.34635193 -0.95513578 0.90839162 0.30966278 -0.12363418 -0.35721667 0.60697962 -0.66099991 -0.40337270 0.21607212 0.49273198 0.34881958 -0.45570587 -0.78368167 0.51135454 -0.14316684 -0.74667163 0.61223122 -0.34121921 -0.35192260 0.72338994 0.61035649 -0.74100915 0.19636651 -0.24925882 0.79755314 0.53884981 -0.18787928 -0.77729427 -0.13836073 -0.13375037 -0.16761005 0.35426951 -0.56900765 0.82858640 -0.49649468 0.17267573 0.10256295 1.03334025 -1.02663432 -0.04619339 0.77134441 -0.91273816 0.86393592 -0.98336416 0.56701382 0.56775662 -0.67072264 0.56866755 1.00270249 0.86340518 -0.44299280 1.15676215 -0.42653779 0.13952869 0.36948186 -0.69731106 -0.28414232 -0.14175436 0.61244002 1.12493559 0.09427046 0.19856530 0.82447245 1.39131181 -0.38555582 0.33411940 0.70918865 0.64518518 -0.95727998 -0.80547512 0.19362554 -0.26931945 0.61342269 0.41258625 0.28262234 0.94338712 0.02991504 0.03141122 0.20915962 0.83454710 0.95235884 0.78856553 -0.10451314 0.09405172 0.04542788 0.17459475 -1.00708010 -0.18693500 -0.40395906 -0.26968384 -0.51961702 0.78446908 -0.09162666 -0.13349204 -0.64221030 -0.39227120 0.52232327 0.95638967 -0.86451306 -0.03374608 -0.66745202 -0.60585749 0.42393106 0.49219359 0.42320903 0.52697870 -0.45452339 0.03865816 1.03857906 0.42600838 -0.81039095 0.07606304 -0.07076486 -0.98626675 -0.78586282 -0.63433949 0.97955431 0.90802825 0.99182613 -0.74170707 -0.16418516 -0.81638344 0.62371721 -0.00854355 -0.64138244 0.95693055 0.71312658 -0.03025496 0.70719114 0.34060614 -0.96262415 0.74070444 0.70121858 -0.34027728 -0.84908670 0.02489695 0.13029358 0.56842786 -0.75409966 -0.79111787 0.64309172 0.55787259 0.28883018 0.40366456 0.42752489 -0.94159404 -0.60919112 0.86273457 0.30128825 0.96262783 -0.09140660 0.60097477 -0.98879102 -0.00961199 0.92450243 0.30550419 0.14493640 -0.74634875 -0.07902511 -0.09449201 0.75031748 0.01108273 -0.37316269 1.06490884 -0.32424578 0.01324239 -0.02281694 0.64777581 0.11764737 -0.43446862 -0.91173338 -0.24522885 -0.87976739 -0.03318644 0.27807293 0.89335130 1.07830627 -0.68078657 0.63188241 -0.99207040 0.53557777 -0.00105280 -0.93762947 -0.94618153 -0.79130279 -0.61646384 0.29728024 -0.00761799 0.49617348 0.64932265 0.62844314 -0.44449556 -0.85581067 -0.44912412 0.75781799 0.87629172 -0.50882051 0.85048355 -0.78356849 -0.07738308 -0.46100565 0.49558504 -0.79070105 1.00001388 -0.85199345 0.63227049 0.78926163 -0.09769534 0.04526782 0.51512380 0.42076220 -0.35279709 -0.54272979 -0.59512800 -0.63418904 -0.00615200 -0.79998273 0.73966799 -0.17813941 -0.27678345 0.48404312 0.28448890 -0.74211870 0.42836241 0.80089366 0.06896936 0.83104925 0.18135293 -0.56372322 -0.20452287 0.83659587 -0.27062901 -0.86249634 0.32078861 0.48023498 0.17426468 -0.42365725 0.07930456 -0.43759348
0.07381821 0.45549949 -0.78008222 0.37607185 -0.37275474 -0.05379187 -0.27556872 0.61486903 -0.78813969 0.08780351 0.96607470 -0.34552715 0.72648087 -0.43031531 0.04356627 -0.89581984 -0.21239494 -0.52705601 -0.42843973 -0.11676252 -0.28837898 -0.44261805 0.68210992 0.99281903 -0.28910863 0.87753378 0.37875376 0.03334564 0.42308900 0.24941188 -0.10412271 0.77653041 0.28897793 -0.87927332 -0.95529338 0.33173029 -0.96695670 -0.72985608 1.00319823 -0.77446775 -0.61001129 0.37521142 -0.71242694 -0.82665208 -0.13680021 -0.12804167 0.63447648 -0.75366738 0.54638735 0.67056523 0.45131612 -0.90220250 0.66264977 -0.67378388 0.41836484 -0.91697018 -0.67143163 -0.18498325 0.96550317 0.22441706 -0.24174322 0.90587638 -0.26323173 -0.02719983 0.31052568 -0.54764210 0.15841237 -0.36381340 -0.65453719 -0.41360886 0.43959593 -0.81035567 0.73518170 0.11190557 0.79066026 -0.68097569 0.12248528 0.63593754 0.03733122 0.02974489 -0.94202271 -0.50522495 -0.60892400 -0.50136471 -0.30134261 -0.61812423 -0.18035210 -0.64158499 0.30090350 1.01390218 0.21619443 -0.83280094 1.10013195 1.11927581 1.20507460 0.17324575 0.34074416 -0.03470659 0.05081291 -0.57208429 -0.06143469 0.62324178 -0.11839373 0.78024943 0.56971942 0.79192108 0.14094861 -0.83314053 0.37435543 0.11218039 -0.61492139 -0.37113297 0.15635288 0.60506914 -0.27094565 0.93261062 -0.63991848 0.27324564 0.78112470 0.90908245 -0.17595980 1.12162691 0.32551511 0.13192829 0.78829489 0.45420432 -0.82381777 -0.56573342 -0.07704019 0.69601959 0.18022028 -0.12436231 0.09116436 0.08412817 -0.61955756 0.36033588 -0.10396131 -0.49333381 -0.94508345 -0.41755516 0.53980298 0.66985005 0.88487909 0.45019281 -0.89883639 -0.08002015 -1.12072865 -0.83112215 -0.04750768 -0.69130599 0.82738800 0.81906870 0.83953156 0.07071704 0.33415018 -0.04722382 -0.01161338 1.02006378 -0.19025283 0.00530774 0.00940373 0.28241946 -0.21999354 0.89162440 -0.22820958 -0.31554745 0.33383274 0.29873669 -0.45850225 -0.13965498 0.86583765 0.78744394 -0.70363555 0.21550532 -0.63835704 -0.82329581 -0.19975511 0.22888105 0.61723241 1.08984387 0.24099669 0.35912935 -1.22027133 -0.09152177 0.27683772 -0.22974277 -0.69575866 -0.08011677 0.70700351 -0.64170573 -0.29118922 0.71003427 0.29623542 0.64220041 0.80193700 -0.99330356 0.34174766 -0.09361488 -0.35845715 0.00784793 0.06542309 0.28711290 -0.66995769 0.55271552 -0.32553526 0.74416676 0.53367570 0.18018274 -1.24014546 -0.41797404 0.50808179 -0.91719111 -0.36872991 -0.12457405 0.33484685 -0.30378137 0.01484155 -0.25248846 -0.72263522 -0.25634498 -0.76490753 -0.80768853 -0.02035074 0.27053680 -0.13250833 -0.18133965 -0.28165940 0.32294708 -0.53785476 -0.64031821 0.05786091 0.84012704 0.75320580 -0.33060395 -0.63395101 -1.25058248 0.39517191 0.10780946 -0.45832474 0.19854738 -0.44801495 -1.14224236 -0.71751764 -0.83120662 0.11639856 -0.06104642 -0.56055397 -0.32568785 -0.52676460 0.14150457 0.68894646 0.21996894 -0.72963077 -0.89434826 0.93976385 -0.48527577 -0.94422202 0.05779692 0.65715624 -0.83365504 -0.40344264 -1.33404593 -1.76882104 -1.09934694 -0.61108990 0.96704858 -0.61106271 -0.41758467 -0.63361729 0.26237032 -0.91028663 -0.87957125 -0.13490646 0.40781277 -0.02036605 -0.92886497 -0.13941655 0.94369897 -0.07325403 0.72191564 -0.63162249 0.88110394 -0.29811603 -0.03106237 0.07187948 -0.99105467 -0.31659967 -0.88524717 -0.89424660 0.40259172 -1.19225517 -0.18088516 -1.08273859 1.01502689 -0.29329626 -0.12736380 0.17667710 -0.54224436 -0.46197045 -0.91253715 -0.76674324 -0.66004609 0.50334111 0.49700387 0.64269624 0.25478035 0.94372771 0.02788137 -0.86666834 0.09045691 -0.82918474 0.73775912 -0.73806174 -0.29138972 -0.23694176 0.36686173 0.70649102 -0.21193722 -1.02302933 0.65178695 -0.24512438 -0.02134092 0.43424545 0.12259794 0.92448361 -0.39351407 -0.00621485 0.04657295 -0.48940141 -1.47610084 -0.16079336 -0.93470728 0.44270837 0.61340100 0.32264750 -0.84035392 -0.16827028 0.07353134 0.17474260 -0.97479741 -0.60441148 -0.45198038 0.30304895 -1.00340727 0.04987679 -0.01906539 -0.44976912 0.36181115 -0.61217864 0.84659191 0.50694066 -0.11963459 -0.33621985 -0.08613962 -1.07628618 -1.26138348 0.24715455 0.17887933 -1.38190158 0.24640576 -0.02613598 -0.12133190 -0.77355483 -0.00343495 0.13952027 0.42962335 -0.83993428 -0.09008277 0.25324175 -0.93657261 -0.32242004 -0.09123227 0.67572085 0.30630495 0.64013086 -0.25123751 0.68415215 0.86621303 -0.32753735 -0.60983874 0.18199121 -0.11115236 -0.36989305 0.52307568 -0.68272201 0.56670532 -0.46008917 0.68447050 0.33443117 -0.63705738 -0.30669294 -0.45508214 0.45164859 -0.76169391 -0.55230492 0.55905102 -0.87076395 -0.21603298 -0.88604758 -0.66643737 -0.12339534 -0.44065855 0.39717349 -1.00886132 0.26584299 -0.08584239 0.08192585 -0.37088313 0.45152992 -0.78349379 0.40569506 -0.66632840 0.42207964 -0.50668458 0.05253303 -0.67312533 -0.60453954 -0.96063808 0.13764329 0.91653351 -0.30478156 -0.91036385 -0.85558524 -1.00572911 -0.76717108 -0.93962537 1.19138480 0.03198461 0.31730671 0.31475761 0.16099686 0.37093071 -0.50191339 0.12812218 -0.22738511 0.50764316 -0.64073334 -0.91244665 0.22502916 0.85010077 1.58371102 -0.04044168 0.52131042 0.27030774 -0.53167053 0.05187525 -0.44832987 -0.79834996 -0.76973049 -0.02128252 0.70298803 0.45448894 -0.24578337 -0.37425668 -0.28790013 -0.12354814 -1.30320554 -0.59154496 -0.69240372 0.49805882 -0.58202120 -0.09608026 0.24063070 -0.55183809 0.35043802 -1.09141188 0.59311087 0.57257284 0.59150339 0.55446484 -0.11317170 0.84406274 -0.61904972 0.10430266 0.44161909 -0.07244249 -0.11451928 0.43982225 -0.69938995 -0.22486095 -0.38408242 0.09761092 0.72948040 -0.58011199 -0.78418605 -0.65580596 -0.08948327 -0.78335607 -0.95201993 -0.02923843 -0.49295092 0.27837316 -0.21081694 -0.09619824 0.68711562 0.93196866 0.99356430 1.65020172 0.02153683 -0.17444495 -0.19300133 -0.39177558 0.10391636 0.93896264 -0.17390068 0.55708134 -0.92266252 -0.32677532 0.15665706 0.68897432 -0.10110326 0.55778188 -0.96086577 -0.08274069 -0.59734276 -0.32293942 -0.92895257 -0.59511994 0.34905511 -1.03332271 1.64056209 0.22671639 0.64962592 0.80557487 -0.06456911 0.78884003 0.63403612 -0.37523421 0.48617508 0.62054717 0.76459548 -0.48082468 0.78908119 0.58960442 0.59604634 -0.32989395 0.25191941 1.18552842 -0.13484348 -0.10855384 -0.86593741 -0.39343900 0.89196804 1.27025773 0.87609051 0.44528706 0.78548406 0.21304499 0.68919321 0.50766907 -0.38574390 0.02518057 -0.25132706 0.75094538 1.34474083 0.17284047 -0.66326413 0.92718637 0.11523857 0.53768357 0.24749381 0.56428597 0.91989761 1.10969910 1.00479932 0.17221570 0.57811051 1.55801539 0.26680821 1.21973022 0.25996860 -0.02816246 -0.65044239 1.20708579 0.27862556 0.53067526 0.04222771 0.09755709 -0.77921808 0.56169743 0.60592578 -0.33505732 1.26237240 0.51900718 0.65445850 0.54200400 0.55104928 0.39890214 -0.72441885 -0.48603330 -0.86074032 1.06091252 -0.05534727 1.07759969 -0.54649197 0.58688865 1.02612802 1.39824086 0.54087958 1.04230598 -0.04555191 0.26421626 0.77887431 -0.74825651 0.68097969 -0.74912312 0.93407446 0.88065391 -0.44958888 -0.30550244 -0.36533976 0.60838004 -0.12862998 -0.55300365 0.17115097 0.73504606 0.29071660 -0.07838189 0.10139984 0.50295693 -0.63816783 -0.49771791 0.65005329 0.87680806 0.42469570 1.08996873 0.24974027 0.54201264 0.05078200 -1.27793761 -0.14267871 -0.34478419 -0.27320668 -1.01658229 -1.03689801 -0.12262824 -0.53012956 0.59308149 0.03728190 -0.12988945 0.64783845 -0.29250991 -0.70523235 -0.11429457 -0.56717457 0.34130393 0.89008773 0.76163617 -0.73956172 0.41842827 -0.39718885 -1.01619432 0.67913224 -0.16902807 0.01106706 -0.58789690 -0.33774573 -0.32935705 -0.32376485 0.37984483 -0.47079330 -0.25260762 -0.29572791 -0.41234363 0.07538590 0.45882613 -0.88504048 -0.29387893 -0.94189667 -0.14850519 0.10594102 -0.99106711 -0.88099985 0.48533415 -0.95304046 -0.60947848 -0.30665991 -0.78265600 0.25804780 -0.90851040 -0.93619716 -0.71609141 0.02464148 -0.25624423 -0.80205794 0.10576359 0.85994642 -0.70504331 -0.33176193 0.64579340 -0.06196100 0.43457867 0.24518622 0.81561287 -0.19726789 -0.84597310 0.67939255 -0.52006204 -0.89270660 -0.90310676 -0.72657398 0.12901456 -0.55138727 0.94551890 -0.85270744 -0.55395804 -0.32613134 -0.86986176 -0.09123780 0.01035066 0.23243151 0.46537769 0.66139308 0.61706630 -0.60292609 0.68885788 0.80935588 0.14023289 0.51582363 0.30294461 -0.24288632 -0.31207763 0.48098540 0.74584340 0.05148624 0.24578739 0.02340823 -0.69562975 0.88321158 0.51155709 -0.15073311 0.67392316 -0.31394263 0.33371968 0.29887891 0.42803680 0.45101135 -0.44663918 -0.94344940 0.41920130 0.47090422 -0.84936845 -0.23805109 -0.80978576 0.82137525 0.51197700 0.93012282 0.28352257 0.47681518 -0.78802756 0.77872957 0.20682903 0.88041088 0.37305881 -0.36879001 -0.17890874 0.86856754 0.49160188 -0.45872989 0.32202718 -0.78240976 0.46646259 -0.22410836 -0.68345813 -0.86872206 -0.16596598 0.01469275 0.20393573 -0.36914511 0.13711985 -0.38348646 0.31850135 0.23455010 -0.07943181 0.06859592 -0.20770938 -0.44610689 -0.31018458 0.46082934 -0.26034402 -0.63450515 0.13210552 -0.82040261 0.02879019
0.88460405 0.60098779 -0.65696453 0.67968673 -0.59434748 -0.65974920 -0.41554154 0.27387801 -0.74228937 0.79301206 0.51497115 -0.17430805 -0.87380355 -0.59034645 -0.21271283 -0.10804582 -0.97826732 0.55720199 0.75205424 0.20762058 -0.05080040 -0.57969573 -0.56737055 0.33651332 -0.00541670 -0.67363885 0.88118092 -0.44235294 -0.74087694 0.12403036 -0.23543380 -0.89438580 0.36127886 0.80095134 0.47576120 -0.15319491 0.32976749 -0.60613156 0.32449267 0.74426471 -0.36780266 -0.56044613 -0.48436684 0.22458418 0.81544215 -0.33567559 0.90832748 0.18621678 0.65498177 0.50343872 0.28084746 -0.03416679 0.53966799 -0.95393876 -0.67022280 0.45474110 0.01006811 -0.45043153 -0.08313801 -0.84265989 -0.43446799 -0.68726191 -0.72834417 0.55811134 0.67942965 -0.20111542 0.68750480 0.82611752 -1.00967734 0.28175312 0.81539835 0.09483710 -0.53574768 0.43736910 0.52166769 -0.46004726 1.00318807 -0.32983265 -0.67267903 -0.74123140 0.84709739 0.61153035 0.19076216 0.38214656 0.75547046 0.18294372 -0.68120679 0.17228887 0.22950612 0.50963586 -0.03073774 0.57252679 -0.81667934 0.03335460 -1.10815843 -0.48778872 -0.06464835 -0.82478654 -1.31331062 -0.03684807 0.69274437 -0.07993469 0.57767019 0.06871953 -0.21309718 0.52502720 -0.65919136 0.32089011 -0.92249949 -0.39194030 -0.89885356 0.12246755 0.01936728 0.20631099 -0.84043282 0.93001682 -0.02124565 -0.46107115 0.76253742 0.74243047 0.79887954 -0.30126845 -0.24890002 -1.31801351 0.05356228 -1.37068895 0.53485968 0.70624126 -0.67938902 0.18046823 -0.74570979 -0.00135554 -0.20399138 -0.36926560 0.67774506 -0.34578707 0.01272372 -0.80994379 -0.81887327 0.39150341 0.76689839 -0.16332532 -0.42937233 -0.96754972 0.98165358 1.03755986 0.26932049 -0.86551181 0.70155599 -0.96360918 0.16098701 -0.80323849 0.08550682 0.36467787 -0.00033221 0.41960512 1.07803797 0.91602820 0.33203465 1.40122688 -0.50022427 -0.03027489 -0.79121454 -0.96402629 0.50362372 0.63475692 -0.26059954 -0.64457958 -0.35126718 -0.15267658 0.44072034 0.90242910 0.20779924 1.01021485 0.36601731 0.71085079 -1.10686811 -0.60120430 -1.24761555 -0.16596369 -0.73925870 -0.80247218 -0.83322466 0.85648610 -0.19548697 0.09243891 1.11921410 0.49299504 0.40158185 0.19056827 -0.59454857 0.77560212 -0.50798423 0.86359676 -0.90849285 -0.01145109 0.79045712 0.41228385 0.29307326 0.97978383 0.70461499 0.59195959 -0.84109060 -0.43316093 -0.61869595 -0.02571645 -0.34644779 -1.46123883 0.67137071 -0.15192971 0.02206497 0.44411355 0.16614963 0.12842441 -0.12739127 0.65841246 0.14026706 -0.40791298 -0.89827466 0.93485062 0.12993427 -0.32590381 -0.04849592 0.83540825 -0.37142628 0.16734623 -0.74814275 -0.70487395 -0.93426900 -0.17080874 -0.39223340 0.49734385 0.54523581 -0.76492206 -1.06992588 -0.39210425 -0.79533701 0.71662229 -0.23446180 0.49160735 0.32105950 -0.75420954 -0.66839015 -0.50120111 0.78582760 0.84016357 0.59499719 0.46248646 -0.27683756 -0.49057065 -0.06637892 0.86050992 0.64827052 -0.49796258 0.69101984 0.67857238 0.93885331 -0.33047440 0.24309025 0.59511170 0.46598160 -0.54376750 0.01237791 -0.60166243 -0.84143217 1.19306193 1.52732911 -0.13374505 0.43266527 0.54173739 0.14598978 0.90989092 0.00156755 -0.20834197 0.48972285 0.55318548 0.98806477 0.83107258 0.66708606 0.17886615 0.91915193 -0.62683296 -0.48819800 1.02478819 -0.52339809 -0.19055478 0.32655537 0.23851715 -0.70600320 -0.06177190 -1.41000589 0.10745886 -0.56117560 0.07747811 0.32988049 -0.54250914 -0.13265162 0.40289051 0.50394552 -0.53626582 -0.31309996 0.56459921 0.85631322 -0.86188592 -1.07397476 -0.29452074 -0.50040954 0.88564120 -0.94639667 -0.49488966 0.18958985 0.47047237 0.58589403 -0.18024532 -0.79553392 -0.98736869 -0.43957433 -0.05455626 0.26830827 0.51704787 -0.47928405 0.90662037 0.80573916 1.01037995 1.32837591 0.15579631 0.19055597 -0.98759429 -0.45705733 0.01965886 -0.81336931 0.15522478 -0.89562132 0.75756764 0.64382967 0.87297489 0.62852042 -0.57015041 0.22124636 -0.18382100 0.74132723 0.75468059 -1.02907190 -0.58967380 -0.94572022 -0.21039562 -0.17673734 -1.30939438 -0.98878135 0.04820537 1.35307672 1.07427794 0.57768627 0.43636499 0.05174126 -0.15014578 0.36007342 -0.12507376 0.49742753 0.15722116 0.28290467 -0.72932574 -0.64271936 0.37551703 0.21463264 0.71789001 0.76629517 0.65202148 1.04192970 0.54588768 0.04233987 -0.16602193 -0.83150147 0.77647658 0.07559280 -0.34873450 -0.12250851 -0.17945096 0.76239016 0.54361259 1.45844188 -1.28952824 0.70252192 -0.65613861 -0.47349276 -0.67297359 -0.44010518 -1.20469141 0.76839573 -0.77426061 -0.04413304 0.68769300 0.94861342 0.88161515 0.98487375 -0.14396240 0.48620019 0.84303216 0.24632468 -0.38892646 0.14338209 0.10242393 0.05354319 -1.01520068 -0.78372621 -0.93712296 1.01814444 0.82749456 0.10273943 -0.53919115 -0.76895413 -0.33491066 -0.68254779 0.58277911 -0.45807709 -0.00622734 -0.31308640 -0.55080893 0.36514621 0.95769849 -0.93812071 0.49209256 0.24220923 0.34919424 0.78129151 0.06612551 -0.62420771 -0.28164412 0.35747998 0.40164853 -0.64387633 0.93083339 0.05947053 0.86289076 0.06314824 -1.22597409 -0.29740629 -0.25071559 -1.65403041 0.07530258 -0.04975324 0.44969117 -0.46985365 0.40638604 -0.89715671 0.80491695 0.43962117 -0.50615252 0.94555562 -0.26441133 1.03775908 -0.53412768 -0.46162146 -0.09743972 -0.83404428 -0.70785685 -0.19261455 0.70282063 -0.77785007 0.58286845 -0.71247613 -1.39819959 -1.89539024 -1.12017912 0.07214349 -2.10943315 -1.13484049 -0.74314716 -0.56420788 0.75130671 0.37833041 -1.02072700 0.29264165 0.49694218 -0.92410659 0.71891123 0.18528151 0.21507198 0.71511195 0.52267622 -0.29624389 -0.70349339 -1.12481571 -0.01030864 -0.26585398 -0.68546498 -0.18817376 0.16579707 -1.15818330 -1.76698021 -0.07096845 -0.06431654 -0.26439135 -0.87323085 0.34024411 -0.04579132 -0.17460585 -0.44686287 0.33809992 0.04162605 -0.06036161 -0.14697850 0.17862527 -0.21504876 -0.45720024 0.07832649 -0.38958662 0.01081442 -0.47182764 1.03384154 0.78106189 -0.18657796 -0.16721504 -0.60615044 -0.71561446 -0.17132885 -0.32731595 -0.52309352 -0.45915131 -0.60747676 -0.24458095 -0.94849024 0.24340297 -0.37787146 0.72340083 -0.57553837 0.70964672 -0.87388781 0.76952724 -0.05533468 0.87054475 -0.10445891 0.06669952 -0.50127034 -0.60452968 0.30719785 -0.85858645 1.09100803 0.58903462 0.30930082 0.85432047 -0.59862203 0.44158701 -1.50100478 -1.56441091 -0.76829751 -0.05145286 0.65110677 1.07795146 -0.66988031 -0.16942198 0.90083706 0.22605076 0.29256305 0.94278007 -0.28071264 0.45860746 0.12733246 -0.12786581 0.96512278 0.51284242 -0.09133099 -0.87209814 0.25925392 0.01751696 0.51634921 1.40862057 0.73515077 0.57236457 -0.30725193 0.71658053 0.49388809 -0.53576979 0.64225143 0.11361706 -1.11763661 -0.28059318 -0.18160141 0.42352394 0.05989850 1.12431300 0.36747319 -0.66027132 0.29850715 0.81060673 -0.35707679 -0.98687170 -0.73332967 0.69399790 -0.79425073 -0.30063439 -0.61848270 1.17710689 -0.39354781 0.98545399 0.13671941 0.11221813 0.78651486 0.54823430 -0.07534054 0.84046186 0.83737950 0.35711226 0.15679088 -0.29597337 -0.05991087 -0.48795553 0.55507888 0.41923486 -0.52876150 0.66378145 -0.86747527 -0.96018373 -0.13314931 -0.34147123 -0.42500723 0.87481353 0.39339656 -0.28520684 0.11530758 0.65908344 0.88819572 -0.09160032 -0.52439267 -0.27485101 1.19352192 0.77515741 0.93436018 0.80057998 -0.52108317 0.75287039 0.59312882 -0.61561471 -0.48234625 -0.56678885 -0.76580503 -0.16396665 -0.55450758 -0.48498612 0.53234913 -0.50984614 0.08132275 -0.45823265 -0.72989453 -0.85755357 0.16754731 -0.26605723 -0.10043758 -0.64729114 -0.14938620 0.13009116 -0.88317378 0.68811348 -0.06862185 -0.05063431 -0.16224897 0.47184757 0.99091650 -0.21033388 -0.25210845 0.62593467 -0.62752097 -1.43583511 -0.76254038 -0.04642336 -0.59527332 -0.80726069 0.01826984 -0.32089690 0.64358218 0.98326564 -0.27952189 0.43118702 -0.32974904 0.34781523 -0.27599464 -1.03483679 -1.16997590 -0.92719924 0.34127051 -0.52832515 -0.49058707 -0.00159138 -1.46884861 -0.51501183 0.40210491 -0.08025300 -0.30933836 -0.74355091 -0.70820017 0.11267383 -0.61968505 0.58371149 0.40726423 0.47789233 0.78283851 -0.01098220 0.85757194 0.65516017 0.51599083 0.20956789 0.85084368 0.52054001 0.87968894 -0.17215159 0.55106732 0.42742279 0.37581201 0.39904296 0.73671446 -0.97640582 -0.47528460 0.90188822 -0.29993499 -0.24894135 0.47071653 -0.44560059 -0.86305073 -0.02010019 -0.48482591 0.54186406 -0.74963331 -0.02624782 -0.47726598 -0.05585786 -0.56689146 -0.03829867 0.55463000 0.88247972 0.15512087 -0.05651591 -0.30561572 0.03191377 0.69837289 0.70664702 -0.79388990 0.77564632 1.05158728 0.80457102 0.08048062 -0.54747265 -1.00467238 -0.18079366 0.23001147 0.55000097 -0.45997113 0.89245002 -0.89402525 0.94321910 0.49033481 0.95719342 0.11926049 0.99574060 -0.23974211 -0.41568247 0.55486705 -0.31085839 0.76045543 0.72973422 0.94322635 -0.36952650 -0.42393514 -0.06772805 -0.74278241 0.80795039 0.48706504 -0.42134583 -0.27578945 0.03143934 0.07709184 -0.43795714 0.93074882 -0.32155706 0.08654309 -0.03378727 -0.02449462 0.86310045 0.32763622 -0.20763140 -0.15071074 0.38822193 0.19977694 0.24738285 0.34245219
-0.74353129 0.61949056 0.07571038 -0.02415294 -0.55005213 -0.72867072 -0.98435122 -0.06813256 0.08489187 -0.05257307 0.83016271 0.88005632 -0.89588274 0.18803631 0.73171061 -0.29809353 -0.27381639 0.96820013 0.81412948 0.92978756 0.38068460 -0.97620988 -0.88478686 0.39364682 0.03564130 -0.67043435 -0.77530459 0.37052696 0.53999015 -0.84553463 0.15766895 0.12148365 0.38327002 0.75633492 -0.56656824 0.06888249 0.47126644 -0.67422953 -0.23982054 0.91187215 -0.57040056 0.03102440 -0.14240517 -0.58544889 0.48531340 -0.55759400 -0.75693229 0.32032363 0.56335174 0.88755076 -0.98662512 -0.83669632 -0.51444834 -0.98213574 0.91524849 -0.72909732 -0.25031603 0.58099333 0.63207400 0.81281405 0.91614887 -0.82259397 0.85436816 -0.58322748 -0.34788897 -0.00325766 0.22705094 0.41165409 -0.58972686 0.56737563 -0.08771611 0.56422244 1.00693678 -0.13115280 0.09675876 -0.82257589 0.20227783 -0.54831630 -0.04043929 0.94577707 -0.89080902 0.56274741 -0.18964767 -0.65089823 0.30986211 -0.26350851 0.85412303 0.14835202 0.90965428 0.47012641 0.34531815 -0.50947894 0.08993029 0.33809986 -0.49219234 -0.32842763 0.72783763 -0.48037321 -0.21745165 0.73758666 -0.12055275 0.72930903 -0.47135053 -0.26556396 1.02699494 -0.39565450 0.08045086 -0.64498738 0.05293226 0.57171601 0.92766430 -0.32410651 0.58464311 0.50758402 -0.87210073 -0.64127978 0.14911508 -0.90146874 -0.45334546 -0.74277266 0.04444203 0.37017992 -0.44112122 0.11907686 -0.20183496 -0.55990766 -0.41862440 0.54613266 -0.87417408 0.09779551 -0.30920006 0.25871817 0.36506454 -0.26366320 0.15463896 -1.08642101 -0.35265672 0.26825173 -0.35059860 -0.26482276 0.26275685 0.46017263 0.00885015 0.69851671 0.24581657 0.92469654 -0.25300127 0.35057131 -0.15519599 -0.43978882 -0.18384509 -0.89233154 0.08900455 0.15240541 -0.56032361 0.21741207 -0.39589336 -0.76081255 -0.89884479 0.49052075 0.17889797 0.22734296 -0.86134156 -0.23093061 1.12086194 -0.72242192 0.92571262 -0.76684284 -0.60006343 -0.06100153 0.62188953 0.88128235 -0.82532906 -0.80797263 -0.75159454 -0.37739215 -1.02283702 -0.27963134 -0.45841931 -1.37968093 -0.85935839 0.32545367 0.87728841 0.86615828 -1.53235477 -1.48669275 -0.91370099 -1.14228654 0.29818417 -0.81250865 -0.03658472 0.20920445 0.07700931 0.24088500 0.30233541 0.35301550 0.03997949 -0.68346353 -0.13637508 0.57787370 0.79301986 -0.40932454 -0.37629319 0.21641380 -0.36946263 -1.02093784 -0.01261049 -0.34918358 -1.01057814 -0.30585908 0.14041865 0.07959216 -1.34908895 -1.39223051 -0.58652393 -0.84465106 0.02047889 0.55733232 0.50671618 0.84266490 0.34202378 0.95480268 -0.77764918 -0.22465062 0.51654966 0.16044573 -0.20247040 0.86027119 0.45388838 0.54099879 0.59207798 -0.50089564 0.57792974 -0.18264056 -0.44289197 0.09608560 -0.32507484 0.65656619 0.55405375 -0.99893278 -0.97451130 -1.06771733 -1.13439206 -0.43335819 -0.49465865 -0.69258057 -0.52795561 -0.31331115 0.01776834 0.84065599 0.28671691 -0.57156792 -0.08787520 0.80024603 0.45917410 0.21695751 -0.34126480 -0.27194088 -0.77671973 -0.05349220 1.13955506 0.86700752 -0.90675029 -1.07442931 0.14268609 -0.35088678 -1.19530767 -0.38576118 -0.03821712 -0.62361497 -0.84257569 1.14100079 0.19558024 -0.00109319 -0.70568744 -0.91279238 -0.77600119 -0.51381383 -0.62722831 -0.25016772 0.68897430 0.28961523 -0.47875826 0.37568497 -0.53984325 -0.78622821 0.50702090 1.20232614 0.93746846 0.24695574 1.42750143 -0.31777296 -0.92130507 0.72452689 -0.84915161 -1.11609354 -1.23153940 -0.69373003 1.13144773 -0.07894366 -1.23168185 -0.21280531 -0.02602876 0.89336698 -0.77180505 -0.11316220 0.20723639 -0.81410523 -0.71249406 0.88685045 -0.24291093 -0.66264882 -0.39302321 -0.32101111 -0.65258413 0.17707998 1.30188806 1.41831764 0.03680074 0.65078921 -0.87706607 0.89546207 0.61351967 -0.26765965 -1.18007806 -1.00232213 -0.25516705 0.02812015 -0.85036799 -0.45174628 0.62060565 -0.19458386 0.57740977 0.30710462 0.25363654 -0.70883895 -0.62642787 -0.28295718 0.22567947 -0.30033160 0.15616047 -0.56411568 0.91193422 0.86423942 0.10086108 0.19432651 0.61563717 0.21195257 -0.35108381 0.65165018 0.54314044 0.38386201 0.10097435 -0.68676155 0.89090174 0.53080904 0.90647079 -0.38584116 0.78679820 0.51432431 0.89359237 -0.49453981 0.78086171 -0.21812644 0.57177894 0.76566155 -0.40684925 0.02973713 0.52241538 -0.67703454 -0.19672663 -1.12176701 -0.15442469 0.78764116 -0.60241373 -0.24278271 0.13263809 0.91150925 -0.51045671 0.56501542 -0.43252246 0.19271267 -0.50391042 0.84358153 -0.57468762 0.79647356 0.66889071 0.17342100 -0.41851905 -0.42692333 -0.69715784 -0.26215364 0.81032043 0.68542158 -0.02398103 -0.85891306 0.59019245 -0.01640815 -1.05081925 -0.69688901 -1.02249126 0.02947259 -0.38751489 0.74519080 0.07646977 0.23066919 -0.53828672 -0.31025129 -0.17328242 0.15944795 -0.07846055 0.49345816 -0.11786386 0.72342481 -0.12917783 -0.09587433 0.70209890 -0.25245807 -0.36868775 0.91029947 0.90220019 -0.99713362 -0.66487071 0.23061507 -1.00349120 -1.09265057 -1.15846660 -0.70004738 -0.22447352 -0.61090604 0.77350425 -0.16318584 1.00181726 0.86354116 0.13064050 -0.26109154 0.50183246 -0.43166863 0.15388922 -0.34096610 -1.21465329 0.15503869 -1.13490871 -0.27690250 0.41047737 0.59493812 0.53290178 0.26587110 -0.33131734 -0.77682510 -0.28085856 0.75175524 -0.77875819 -0.06120383 0.32703845 0.05333348 -0.40663509 1.19623506 0.55885606 2.14082164 0.52170549 0.55511330 0.98761796 0.33652442 -0.29057277 -0.34676029 0.10374060 -0.01888321 -0.53447661 -0.56506469 0.22652991 0.70234443 0.12033008 -0.43178277 0.35563863 0.68936083 0.77995952 0.33629541 0.89355717 0.05206327 -0.40953704 -1.13166160 -0.58123230 -0.51316228 0.75479852 0.38430035 0.61232146 1.19510777 -0.36968806 1.19213078 -0.01200136 -0.49910725 -0.57053335 -0.89133457 -0.41936395 -0.43672423 0.02518022 -1.23752042 -0.44030265 -0.44763066 0.24857589 0.45394752 -0.57734677 0.61420518 0.54470232 -0.99863378 -0.48425691 -0.56219883 0.39654504 -0.30728980 -0.68137425 0.79867153 0.34945804 1.89266821 1.37798583 1.25017035 0.72778175 0.18482591 0.19553588 -1.08015426 -0.56906522 0.04619954 0.74821693 -0.40508342 -0.62317604 0.09832508 -1.17701538 -0.33417761 -0.13494340 0.74469525 -1.01397094 0.55325039 -0.87597541 0.32394970 0.73254713 0.71217806 0.29468654 -0.49951909 -0.34265061 -0.06634605 -0.37711635 0.71189601 1.62465147 0.98092044 0.31778297 -0.17017563 -0.32829177 -0.26188447 -0.08365577 -1.65528300 -0.97291760 0.08697132 1.19211384 -0.03889683 -0.43109862 -0.69393771 -0.91388345 -1.04482139 0.21222457 0.40699417 0.07795261 -0.49099110 -0.18921262 0.82354096 -0.09646691 -0.89516547 0.83670057 0.75513012 -0.00031153 0.15993751 0.34530230 -0.36579312 0.37139703 0.07372679 0.27181828 -0.22232233 -1.10170814 -0.28816658 0.43822125 0.24862796 -0.19244619 0.55746384 0.11692632 0.08115770 -0.20078347 -0.52804175 -0.90354866 -0.79697849 0.76988692 -0.38860517 0.33808560 0.69259437 -0.08507396 -1.17516680 -0.02155251 -0.97693062 -0.68486335 1.25258506 0.10618926 0.13176909 0.08192207 0.60086377 -0.24686357 0.26606070 -0.23896797 -0.52550203 0.01857275 -0.74538806 0.52349762 -0.63926472 0.56310951 -0.63604018 0.41519614 0.55112074 -0.59370760 0.71037096 0.96319162 0.23605626 0.96213834 0.64079338 -1.02910682 -0.26753180 -0.93999057 0.27758110 -0.28049476 0.33591490 -0.18991879 0.49499623 0.88133822 -0.97567031 0.28132010 0.44320810 -0.18125624 -1.06778178 0.95057244 -0.61553069 0.33051765 -1.21890634 -0.04536642 -0.55241446 -0.75373320 0.44725240 0.94435397 -0.75399612 0.93680526 0.86356545 0.06588427 -0.34153385 -0.92598665 -0.66510333 0.51976985 0.10976773 0.26758749 0.91249796 1.08442122 -0.23576074 0.04904694 0.83333727 0.41960622 -0.30827371 0.78117235 1.47727662 0.42973978 -0.77640697 0.42112823 -0.45534759 -0.98573268 -0.30195832 0.84317650 -0.63098853 -0.99858714 -0.74189124 -0.37109948 0.77432922 0.89331026 -0.06772054 -0.82566142 0.18727473 -0.53494203 -0.98375046 -0.97964614 0.11382002 -0.61558721 0.86811413 -0.02706342 -0.56677005 -0.19770646 -0.42429268 0.98505097 0.44941082 -0.52367765 0.03250715 -0.02111797 0.51258010 0.30109133 -0.11515553 0.10934845 0.37626214 0.77530085 0.65877401 -0.31327110 0.04502961 0.13002071 -0.97042004 -0.24745120 -1.21077364 -0.05633468 0.24623396 -1.01882898 0.37987648 0.94696162 -0.32033569 -1.39737879 0.28145410 0.19737431 -0.09950361 -0.79638773 -0.19070682 -0.15404590 0.60346783 0.90191768 0.76376184 0.43842142 -0.68996456 0.18512394 -0.76748130 0.05405521 0.24169350 -0.14258526 0.12429470 0.23862078 0.04293377 0.83442619 -0.71951316 0.10450117 -0.18016699 -0.75216406 0.35499504 0.21436992 -1.21274546 0.13071642 -0.60501356 -0.62964598 -1.23021028 0.07470484 -0.17665472 -0.97370264 -0.43712041 -0.53610321 0.87836870 -0.21494244 -0.86270879 0.73583804 -0.48064444 -0.63645787 -0.51040906 -0.10142744 -0.24277366 0.46619189 0.01877699 0.84881198 0.03537686 0.97892562 -0.82287520 -0.90146778 0.36235488 0.96295959 -0.81827414 0.52696556 -0.86967036 0.16020813 -0.55341178 0.18204044 -0.52583685 -0.01267902 -0.69293069 -0.99396484 0.67477055 -0.35385788 0.71438934 -0.59327063 -0.25442986 0.73828164 0.74173052
-0.16635372 -0.45257826 -0.03967194 0.40740875 0.89956595 -0.07282761 -0.04825778 -0.46551757 0.04669094 0.57195292 0.23031073 0.99070804 0.74939254 -0.77480481 0.33072686 -0.24005306 -0.05873364 -0.35349319 -0.82654221 -0.96562339 -0.56641288 0.66909971 0.98711793 0.21511587 -0.54418696 0.51868790 -0.95457236 0.78116053 -0.75528592 -0.28455201 -0.73259912 -0.33439246 0.55596471 0.34352815 -0.66704379 -0.85249310 0.74654625 0.24970138 -0.62262530 0.94293043 0.52884299 -0.19024438 -0.40583532 0.27176084 0.45285233 0.39677170 -0.01393175 0.43414485 0.36830369 0.82347263 0.61468676 0.58114076 -0.90113157 -0.03157296 0.05648871 0.89564959 -0.97016273 0.34299177 0.48113252 0.70223086 -0.76828198 0.74592175 0.94742715 0.94979281 -0.42307730 -0.69603690 0.64897691 -0.10635933 0.31338072 -0.53953955 0.85651350 0.66559176 0.26807130 0.31380097 -0.19236894 -0.60101677 -0.59877434 0.92386896 -0.87310892 0.47419607 0.28704458 0.10778518 -0.91797474 -0.55169542 -0.01943854 0.43452998 0.04935354 -0.94943838 -0.50798287 0.87005270 -0.11494005 0.40385781 0.20668372 0.77812950 0.89085673 -0.50769864 -0.31118251 0.57756558 -0.82001964 -0.64896048 -0.34535544 -0.86079499 -0.52189765 -0.39392127 -0.77503460 1.04035881 0.21333021 0.55931312 -0.07658094 -0.08118980 0.77533644 0.76185234 -0.55960701 0.27828273 -0.00238227 -0.87233586 0.82674369 -0.70284720 0.32861061 -0.58523206 0.02248382 0.33652677 -1.19895646 -0.73005008 -0.54826751 -0.58667556 -0.54891547 0.37202697 0.46348465 0.59855548 -0.32962648 -0.15376167 -0.02112952 1.04401518 0.50342958 0.70777890 -0.98325507 0.00611590 -0.92232578 -0.42121810 0.29927198 -0.15781721 0.31074340 -0.53648737 0.84336618 0.67583539 0.23347868 0.20452589 -0.60351324 -0.54592733 -1.16557372 -0.14997763 -0.71884627 -0.29465049 0.15911172 0.16330264 0.29764190 0.62801402 -0.51386390 0.31229412 -0.67400962 -0.36970409 -0.51143304 0.63671669 -0.56383867 -0.81687927 0.91677793 0.50397908 -0.87131985 0.96088647 0.45313415 0.04673017 -0.29409803 0.86812751 -0.03810652 -0.98056450 -1.11008703 -0.27899168 -1.40157806 0.31371582 -0.12087784 0.31333885 -1.06128100 0.05029577 -1.49671822 -1.02699360 0.13412665 -0.32085606 -0.53630877 -0.36550526 -0.30209798 -0.06204413 0.40819502 0.33249607 0.30205011 0.69198298 -0.96186768 0.01347049 0.67195572 -0.78516363 0.45761359 -0.48260955 0.59067909 0.26523358 -0.18415062 -1.00034935 -1.44782476 -1.23371566 -0.72505600 0.35845615 -1.21585588 -0.60856339 0.18315378 -1.40006164 -0.19971723 -0.50172035 0.52524892 -0.41455474 -0.82981317 -0.16499272 -0.79854364 -0.24469761 -0.85569586 -0.93463558 0.16400129 -0.39120964 -0.13604560 -0.44465161 -0.16100224 0.90716486 -0.22062183 -0.97726402 -0.46589970 -0.00536586 -0.58540530 -1.06557555 -0.84370372 -1.09291845 -0.52693464 0.26254345 -0.28191454 0.41998274 1.04504845 -0.75573096 -0.27316137 0.45513425 -0.48575460 0.25980219 0.64958429 -0.00722362 -0.57248522 0.03731585 0.64792101 -0.08121834 0.20030662 0.09933638 -0.73056912 0.19732164 -0.05823448 -0.39378015 0.44300204 -0.85913161 -0.63906409 0.30066275 -0.27746745 -0.12360414 0.05646700 -0.91924674 1.49879849 1.24793424 0.45692590 -0.38304258 1.47927311 -0.10503729 -0.01520205 0.08809809 -0.24911862 -0.54966432 0.64612005 -0.49757229 -0.11858221 0.22234383 0.50927959 -0.53419114 0.58254860 0.02488809 0.24385892 -0.25667939 -0.66812217 1.01476366 0.33952856 1.34327651 0.23740045 1.51727687 0.59990132 0.60846474 0.73815033 0.28078664 0.99575220 0.96833421 0.69162821 -0.09234015 0.33648469 0.17349939 0.02627232 1.13855443 -0.46877773 -0.35117127 0.73391251 0.16533616 0.45154457 1.05026626 0.40893933 0.00814553 0.10715273 -0.21065877 0.65680907 -0.62440255 1.03735176 0.23246225 0.52413859 0.71698856 0.95896430 -0.09972598 -0.45634393 0.53735210 0.25678762 0.85185427 -0.77871638 1.10658095 1.05794461 0.62988979 -0.20943809 -0.05599883 0.13970588 -0.11657747 0.10883826 0.24370619 0.14260244 0.26229837 1.16456779 0.73530734 -0.34859753 0.54470471 0.81677574 -1.00586069 0.05966470 0.62924225 0.89743071 -0.46378662 -0.21281206 0.28726892 0.27804249 -0.52131139 0.29876883 -0.09439254 0.35687708 -0.42140206 -0.57281756 1.00538039 -0.82414137 0.99717154 -0.80062945 -0.37288310 -0.51188230 0.02118218 0.10770437 -0.26039530 -0.35354109 -0.16163374 -0.19789347 -0.50873159 0.73965396 -0.55103888 0.97870201 0.34603926 0.36367498 -0.58486365 -0.14689311 -0.97959646 -1.23050227 -1.37220828 0.15583075 -1.13309364 -1.51958594 0.40343694 0.72563585 -0.71959212 -0.08908247 0.38149747 -0.61797370 0.33656972 0.79464743 -0.19521757 -0.57239358 0.24532788 0.06346076 -0.55374834 0.64906218 -1.39580023 -1.19640696 -0.09008453 0.81754757 -0.83022868 -0.45748815 -0.43218093 -1.27423159 -1.83830967 -1.13491074 -0.93939474 0.24819291 0.56104509 0.18765533 -0.40920371 -0.29483795 0.83678258 -0.82023950 0.84910080 0.32562948 -0.98311571 0.97370842 0.26393261 0.96197843 0.53488469 0.59883647 -0.03558904 0.44049841 0.45751424 -0.95640013 0.49572346 -0.24105669 0.65765181 -0.28092270 -0.81443383 -1.10225054 0.41223186 -0.04125935 -0.39389376 -0.03263025 0.16275985 -0.21004876 -0.21549943 -0.98266517 -0.42948766 0.91282336 -0.80926435 0.27198814 0.83498195 -0.47552050 0.01102433 -0.04020805 -0.57643785 -0.77483624 -0.59296413 0.34052225 -0.41918461 -0.57023424 -0.48329596 -0.13295067 -1.73258557 0.28697166 -1.54513004 0.49868652 -0.82148430 -0.86362474 -0.18602296 -0.66164720 -0.03524766 -0.80256716 0.95609095 0.09707471 -1.10391106 0.90427215 0.22091488 0.46952275 0.50468247 0.72252682 0.65621020 0.66118977 0.33574126 -0.22062537 0.63911473 0.98760356 0.86463049 -0.34115299 -0.24455969 0.32327075 -1.33409554 -0.14929580 -0.42657071 -0.66449639 0.24079089 1.01387110 1.11007819 0.14661287 -1.26426370 0.09520987 0.17370071 0.56368040 -0.43830989 0.78024835 0.92783026 -0.39386511 -0.66593310 0.47246995 0.60319716 0.44256950 0.11568997 -0.77809034 -0.26893315 0.18086343 0.04264306 0.22770191 -1.10163071 -1.18516298 -0.91590918 -0.29483722 -0.32279204 0.37081768 0.45611604 0.88413376 0.62236379 0.02309435 -0.19465559 -1.34218566 -1.10577889 -0.10162787 -0.91310205 -0.89178431 -0.62671012 0.95713547 -0.64575504 0.60666786 0.67726814 -0.96573509 0.19046737 0.05574705 0.86744565 1.04529634 0.74255477 -0.15967460 -0.45961688 -0.49594482 0.47157644 -0.34621426 1.19979085 0.99207209 0.36186809 0.34720996 0.90570707 0.49817517 0.27927625 0.16662010 -1.32725961 -0.59561922 0.03002099 -0.92202643 0.66876532 0.14031536 -0.23277108 -0.95360458 0.71955234 0.98433509 0.62134991 0.51986741 1.06583334 -0.45734550 0.60878838 -0.13298077 0.29913028 1.00364280 -0.36069318 1.17267353 0.01392962 -0.27921678 -0.20273382 -0.22728391 -0.51078672 -0.57304209 -1.13602577 -0.07055799 -0.79982908 0.49310767 0.26328773 -0.36316811 0.21479574 -0.08342024 -0.46005695 0.44503395 0.91068995 -0.70464920 0.63750717 -0.16513190 -0.28971265 0.72484636 0.21320729 0.06995148 0.79504242 -0.46655022 0.02763688 -0.43419420 0.28287799 -0.12515777 -1.43756582 -0.39267148 -0.20028164 -0.16538273 -0.86031595 -1.03134664 0.45756196 0.19427411 -0.46492578 0.43420312 -0.54988738 -0.44216433 0.30135801 0.95095265 -0.53910669 -0.02773911 0.07336660 -0.73098232 -0.48040172 -0.54214494 -0.07698780 0.22830470 0.22256577 0.73272762 0.22732563 0.04571448 -0.31137607 -0.00648161 -0.18536501 -0.67446259 -0.82284526 -0.44867650 -0.82157726 -0.31598839 -0.62571688 -0.07467892 0.47057712 0.37525987 -0.17372361 -0.82114679 0.78746794 0.30581686 -0.65142259 -0.06469200 0.01301385 -0.44369093 -0.68131284 -0.24718108 -0.62049092 0.60778211 0.87238551 -0.42178160 -0.19343923 0.85767924 0.29987512 -0.43322866 -0.88689243 0.08205310 0.13081452 -0.63627118 0.49349281 -1.12558546 0.58324796 -0.29643008 0.42463904 -0.24672960 -0.97353279 0.90609910 0.56206091 0.84467396 -0.25918059 0.66510573 0.28182127 0.49832060 -0.68162408 -0.19164228 0.13521579 -0.88625543 -0.40461867 0.70988234 -0.69660480 -0.70831435 0.78794315 0.82874028 0.59285821 0.86128086 0.26299018 0.39462414 -0.22746424 -0.52763372 0.07838289 -0.62448752 -0.39691520 -0.05980259 0.09912190 -0.91789175 0.35196055 -0.03416244 0.34234038 -0.53822876 0.80921571 -0.06662614 0.78990323 -0.52673681 -0.61978173 -0.05177461 -0.36730521 -0.62597276 0.83175877 0.64357604 0.08683603 -0.79144924 0.69117697 0.00670360 -0.05758443 -0.00118274 0.69738418 0.61623764 0.97073619 -0.66898394 0.80120033 -0.02074116 -0.76222075 -0.91252476 -0.85764007 0.33686413 0.44924367 -0.15343798 -0.71462347 0.10392639 -0.22196301 0.51065472 -0.38383333 0.96395232 -0.08830621 -0.66839416 -0.76135669 0.04842683 1.13422196 -0.87804825 0.38084718 -0.29536804 0.35811028 -0.18527270 0.46389539 0.03472296 -0.94531907 0.20478963 0.27481440 0.23260512 0.91052697 -0.40018835 0.17211909 0.48768595 -0.22741186 -0.53915075 -0.05790732 0.00450125 0.95085281 -0.08054523 0.30211432 -0.62290244 0.37117491 -0.26074101 -0.75740138 0.89987718 0.92719259 -0.57021991 -0.16251268 -0.67946247 0.59502717 0.34261332 -0.83587802 0.51419222 0.44444309 0.20333371 -0.92691417 -0.54583989 0.37668444 0.03561909 -0.84950747
-0.30038673 0.37312157 -0.97829678 -0.24270337 -0.82556571 0.66099536 0.17628653 0.62981490 0.54852397 0.65377069 0.70201141 0.99889601 0.45933273 0.61479043 -0.35431237 0.91574645 -0.16529467 0.24646955 0.89197909 0.52500294 0.15106510 0.22455539 -0.88152901 0.20085563 -0.92041358 -0.47579648 0.38589920 -0.62440525 -0.56384660 -0.26554671 -0.77092874 -0.27651754 -0.92450113 0.43679778 0.73123267 0.36394398 -0.61994112 -0.63955319 -0.01061070 0.62186776 0.35186777 -0.40539196 0.67162941 -0.66110470 -0.91698678 -0.70118587 -1.02652553 -0.26315391 0.86339860 -0.60453450 0.40597458 0.72288464 0.04267866 0.05009321 0.07398863 0.71520867 -0.56332572 -0.04862710 0.55078642 -0.77940312 0.12427234 -0.59614476 0.26990801 0.30185796 0.32862627 -0.86341939 0.40778567 -0.19854650 1.04433879 0.66816180 0.76692343 0.35057498 0.66769863 -0.35865188 0.47489962 -0.41014576 -0.30520606 0.38405508 0.59586343 -0.79799565 0.24144866 0.38411049 0.73639709 -0.72901330 0.67875633 0.30780740 0.86130621 0.92441123 -0.81383013 0.34039746 0.74747192 -0.06088532 0.13838883 -0.76632657 0.28102118 0.37443065 0.41770528 0.97840586 0.70434478 -0.12814355 -0.18458214 0.55642134 -0.73225223 -0.08095117 0.10639165 -0.86065535 0.25287048 0.22233925 0.91024983 -0.92811806 0.73556033 -0.23801676 0.67673780 0.44985888 0.97905505 0.53164898 0.38357200 0.33309802 0.78573776 0.46598102 -0.21335171 -0.47647940 0.18106925 -0.28360055 0.29547906 -0.20339586 -0.51623356 -0.73274369 -0.59433112 -0.45231715 -0.50926224 -1.49325563 -0.80437216 0.09759932 -0.90207977 0.48697471 -0.71890219 0.12623337 -0.10991254 0.64862668 -0.34537627 0.31318986 -0.73129202 -0.38763183 -0.83974021 -0.13446701 -0.48429581 -0.61601962 -0.19105781 0.32157202 0.44466934 0.76926414 0.37336072 0.63817262 -0.67704517 0.40332029 -0.04748090 0.90029704 -0.73757818 -0.48217657 -0.86693198 0.05454790 -0.04373598 -0.16665344 0.67130665 0.22210939 0.59336016 0.35904770 -0.98874373 0.92629544 0.49481233 0.61833518 0.02343953 -0.50250748 -0.17210958 0.63121086 -1.05088676 -0.20715058 -0.11742317 0.00981683 0.01564947 0.04746146 0.16308549 -0.18184697 -0.45203809 0.63618245 0.77396122 -0.30659536 -0.98872115 -0.17918622 -0.43183519 1.01195783 -0.10502920 0.36478816 -0.81112689 -0.56375813 -0.88886821 0.06404719 0.47366443 0.74936140 -0.26862775 0.50954542 -0.17647749 0.55139577 0.32330301 0.49264508 -0.24236637 0.48079656 0.30225203 0.10587746 -0.50924433 0.47111805 0.56437945 0.83790719 -0.03441110 0.41181889 0.67359284 -0.83217412 -0.17511139 0.48667300 0.81398616 0.51471854 -0.80718155 -0.12558486 0.52213944 -0.04461250 -0.01704726 -0.45977852 -0.66822546 0.16290590 -0.56677579 -0.90403510 0.44245433 0.75901348 -0.36565180 -0.52319136 -0.02818429 0.27341184 0.14107254 -0.81480719 -0.80771413 -0.18844252 0.36323194 0.69000226 0.51992722 0.69127936 -0.13903632 0.01139915 1.12706524 0.70079688 -0.15058576 -0.71933284 0.09691144 -0.84523611 0.75817956 0.23170903 0.70223580 -0.01781591 -0.13399520 -0.63027443 -0.16503070 0.29702873 0.96657967 0.76543737 0.50900394 1.26914614 0.90275171 0.13417888 0.81945784 0.72875186 1.04558271 0.88606722 1.14150206 0.87960597 0.65670397 0.70620387 0.40455545 0.12110358 0.28282943 -0.74282836 0.75727170 -0.67090601 0.33313324 -0.91930118 -0.38018634 -0.03465802 0.80875405 0.44403398 -0.56479465 0.52840978 -0.40255580 -0.34548593 0.72672585 -0.01407280 1.49596294 -0.21870997 0.20232254 -0.04224781 -0.25062160 -1.12431587 -0.63375684 0.76012815 0.58049448 -0.55614456 -1.03422496 -0.27861177 -0.59623640 -0.35314964 -0.50814728 -0.07779574 0.87286444 -0.96005495 0.08070017 0.64361221 0.00490311 -0.06248262 0.82191915 -1.05735970 0.15180346 0.40572358 -0.15030061 0.26622879 0.18010739 -0.55873584 -0.58034772 0.88179966 -0.37218861 0.30530637 -0.22655487 0.92733877 0.91542045 0.15591561 0.04005164 -0.75582761 -0.01017928 0.01948397 -0.08540344 -0.25341835 0.72817705 0.34602781 -0.48177196 -1.30070818 -0.77044502 -1.38070298 -0.60311598 -1.04865659 -0.96855715 -1.42541672 -0.55201133 -0.95608349 0.62626739 0.11840817 -0.96475630 -0.35279481 -0.77118855 -0.55400371 -0.54661845 -0.13780886 0.20664622 -0.14957254 -0.26053186 0.21997630 0.27342456 -0.50330210 -0.24255348 0.10577383 0.59738738 0.19627494 0.30099799 0.21772667 0.44430626 0.10977770 -0.90348273 -0.23289382 -1.19627678 -0.90879516 -1.35817723 0.02429111 -0.55868541 -0.22360816 -0.08554702 -0.48799768 -1.06944916 -0.69823836 -0.20579658 -0.04643572 0.11231167 0.26681564 -0.23677051 0.84970092 -0.13426191 0.80098830 -0.11667679 -0.47098921 0.26673661 -0.97862214 -0.08242235 0.77029292 -0.60934155 0.80387640 -0.20356551 -1.75144695 0.28761449 0.32876514 -0.32518016 0.88808904 -0.04787183 0.80319946 0.85161182 -1.87480107 -1.73047184 -0.58175561 -0.74982838 -1.11317035 0.51702446 -0.63428282 0.40156101 0.54017447 -0.61706693 0.17578963 -0.19410038 -0.94698536 0.91269641 0.17492855 -0.49198575 0.11363186 -0.81383322 0.29920299 -1.03553346 0.17041884 0.44553957 -0.22494665 0.20523029 1.21370454 -0.20568832 -0.86061299 0.87100301 -0.87506368 -0.72011927 -0.39471262 -0.87031196 0.49611694 -0.91339273 0.30140320 -0.22868054 0.07670927 0.95307906 0.28384167 -0.70942155 -0.00919296 -0.85796586 -0.04788395 -0.77364540 0.22964858 -1.01680072 0.55683266 0.46844220 0.80876639 -0.56214226 0.44980154 -0.54955520 0.16506342 -0.08567932 1.29193574 0.53306400 -0.73802087 -2.13152279 -0.76666099 -0.46370514 1.11810587 0.10745239 -0.10830972 0.61277081 1.26945572 0.59249112 -0.02484200 0.38646331 0.24758371 -0.45856046 -0.05938761 -0.02005142 -0.72549580 -0.16806932 1.04081657 0.39684371 1.12583277 0.44833681 0.14020088 -0.35698742 0.59230465 1.46771680 0.35654885 -0.01810124 -1.40419729 -1.45099353 -1.15997278 -0.19201181 -0.68198175 -0.26094157 0.68769842 0.69236141 0.13880743 0.80627653 0.93145514 -0.79800142 -0.45826376 0.68625112 -0.98156095 -0.45801457 -0.69382606 0.50947917 0.41380039 0.45940775 0.73737176 0.14858113 0.30127417 -0.48612985 1.22831626 0.79968987 -0.06399309 0.25036233 -1.23047369 -1.56644056 0.00510037 -0.83108200 0.22751808 0.76646448 0.88769077 -0.09806077 -0.10344824 0.45490325 -0.63522529 -0.11258950 -0.37822044 0.26892598 0.34298756 -0.32780915 -0.76566883 -0.79498855 -0.25297701 -0.40245341 -0.83366980 1.04958046 1.06704221 -0.74726748 1.22128409 1.49404612 -0.24232389 -1.47555032 -1.70158581 -0.34406325 0.45741586 0.79234212 -0.70085980 -0.45964606 0.72911642 0.12083259 0.88741761 -0.37205230 -0.63000530 0.62473680 -0.91551406 -0.46897640 -0.13861456 0.72347000 0.66539003 -0.55965666 -0.35229762 0.83008808 0.58742196 -0.21100922 0.99555427 0.93676323 1.19427907 1.50113575 0.25760715 -0.78940491 -1.29930569 -0.37759302 0.21940976 0.72159887 -0.24239507 0.13275325 -0.12139534 -0.57554074 0.31491369 0.39930954 0.84957240 0.95209792 -0.64857339 0.43951517 -0.17780431 0.14539610 1.11284595 1.40266901 0.30041028 0.18399749 -0.67491179 -0.31081765 -0.36465122 0.46284046 -0.25069696 0.37778009 -0.47737958 -1.49119998 -0.92357746 -0.94208293 -0.89743987 0.50223057 0.41605526 -0.00768217 1.14143758 -0.46999203 0.49309525 0.88353806 -0.40715354 -0.53884778 -0.22124370 -0.18257429 -0.27978809 -0.07711050 0.15839759 0.18226577 1.84905358 1.15171499 0.92275656 0.69747563 -0.22432395 1.03828196 0.21027715 -0.07711052 -1.35266897 -1.75245467 0.34709497 0.31633051 0.69937940 0.95940879 0.52106685 0.55757636 0.37123834 0.89163292 0.96380251 -0.63239100 0.51326717 0.80755852 -0.48197059 0.29415448 0.70554494 -0.50763789 0.74678595 0.13250317 0.19922984 1.20302883 -0.30465290 0.66675952 0.17309381 0.26160178 -0.75046256 -1.07170806 -2.04815911 -1.27936280 0.29305388 -1.28794807 0.02590739 -0.63909638 0.44398649 -0.23762101 -0.48558049 0.84723691 -0.39032036 -0.75924759 -0.45279798 -0.93809276 0.92356888 0.80337901 0.32645333 -1.09347952 -0.01650521 0.37633394 0.77742524 0.51436940 0.94144177 0.93062925 0.22674146 0.17601511 0.33624722 -1.29234363 -1.84328687 -0.89332293 -0.02538318 -0.69627808 -0.25316192 -0.58718161 0.26097382 -0.39564653 -0.87973284 0.68725473 0.87696226 0.77799764 0.12894335 0.70404792 0.55345368 0.10617056 -0.75324165 -0.51179472 0.29316484 -0.48481600 -0.58072059 0.04570523 -0.90204133 0.55631596 -0.30436545 -0.33272173 -0.26166568 -0.34885640 -1.02453023 0.36181650 0.41728896 -0.05043807 -0.46045408 0.61600305 0.08110278 -0.31073923 0.02249440 0.87934612 0.66647234 0.23956796 -0.79042282 -0.97337834 -0.29272922 -0.40205007 0.62874102 -0.33345795 -0.30972113 0.63561763 0.41104373 -0.32876415 0.88651997 -0.64812148 0.47938173 0.93352471 -0.00764963 -0.90182343 -0.51123262 0.50607477 0.71652478 0.42577310 -0.37437018 0.74873148 0.93500792 0.91677819 1.00235900 0.76903677 0.44222127 0.75344750 -0.64241523 0.36399626 -0.33598878 0.40871820 -0.05078139 -0.19680450 -0.97593295 0.21492223 0.67886447 0.50009890 0.14348747 -0.50117053 -0.15946699 -0.41511495 -0.71925406 -0.12883828 0.02557834 -0.78759222 0.52719639 0.01426481 0.69160628 0.14666210 -0.50718031 0.25688611 0.70137108 -0.13525346 -0.44828843 -0.61848953 -0.18705510
-0.23233819 -0.37522747 0.58518165 0.92197667 0.55666322 -0.20788008 0.10305581 -0.51063138 -0.00921731 -0.30950274 0.69591029 -0.18594477 -0.11456884 0.69496194 -0.76742806 0.51576407 -0.39998968 -0.20218562 0.53426759 0.41891785 -0.84207037 0.42669865 0.27531222 -0.23886552 -0.22418018 0.57604922 0.37626845 -0.16120560 -0.82535860 -0.66492831 -0.65845666 -0.42271529 -0.84458324 0.77885254 -0.75306510 0.77799527 -0.16326159 -0.63342715 0.20844585 -0.52391762 0.66375889 -0.53624514 -0.16030815 0.38700370 0.93743462 -0.49954757 0.39269478 0.40932898 -0.41134706 0.17318137 0.00423369 0.61372989 -0.94734611 0.96320293 -0.28824001 -0.08332681 -0.56925483 0.31208939 -0.81990813 0.28969324 0.80617367 0.67283131 0.70322977 0.94445252 0.73857029 -0.68417742 0.40739400 0.77021980 0.03938639 -0.42571225 0.81952320 -0.08853832 0.26879908 -0.34614189 0.91302497 0.19109349 -0.96890306 0.27114035 -0.08253667 -0.55429372 -0.16519574 0.40503052 0.02757008 -0.32814478 -0.91372468 -0.53885729 0.80520181 -0.37892674 -0.30339593 -0.30514074 0.59775070 0.95208146 -0.91663104 -0.95981854 -0.39317654 1.01105798 -0.12651030 0.06935105 -0.96976937 -0.06159369 -0.11670220 0.09949058 0.38884905 -0.43128636 0.80347474 0.10532271 -0.27677475 -0.09211248 0.08862114 -0.48332604 -0.82045908 0.42861625 -0.71344570 0.66235408 -0.38231346 0.24767512 0.53629557 -0.65639196 0.20383867 0.59593025 -0.42938402 0.47913461 -0.48491010 0.00196356 -0.33245430 -0.40912315 0.95823222 -0.00692872 0.55117562 -0.44455096 0.36083050 0.67080431 0.81021168 -0.71193624 -0.96661608 0.79924653 -0.46680158 -0.12667218 0.92810615 0.76850440 0.69102995 0.31109462 0.11966677 -0.38250922 -0.65784709 0.80308894 -0.28632931 -0.54159442 0.74921475 0.06107247 -0.56318104 0.68223227 -0.08739198 -0.14140080 0.22069888 -0.41365551 -0.02699114 -0.16102799 0.21277474 -0.54809538 0.41815989 0.67848218 0.14703817 0.43967178 0.40496595 -0.34065897 0.76826095 -0.81265344 -0.82230094 -0.26810749 0.10435774 -0.75559440 -0.40911094 0.65757370 0.31634873 0.09022118 0.05665269 0.02863125 0.12940223 0.46419125 0.74683343 -0.04632925 0.31812939 0.44463926 0.82627787 -0.18637781 0.05806512 -0.05072085 -1.03386933 0.21960487 0.37340547 -0.58626586 -0.99495032 0.75857644 -0.55827385 -0.15065357 0.58059115 0.69816848 -0.02620044 0.93935530 0.83283245 0.31842871 -0.64954210 0.05469145 1.06068446 -0.08903500 -0.32054114 0.35970379 0.86121044 1.05805295 1.26553159 -0.36128875 0.34685050 0.02763930 -0.38476972 0.66540854 -0.39996914 -0.05837254 -0.68060284 0.62453294 -0.98104372 0.30279384 0.64337703 0.09252589 -0.81343904 -0.46825453 -0.05059062 0.47040505 0.86393133 0.20725379 0.11212785 -0.42081838 0.30854690 0.09770831 0.77902759 0.63893820 -0.54937176 -0.96917760 0.69397835 0.20922566 0.43470227 0.25671811 0.54408593 -0.40556655 -0.55804260 -0.33420209 -0.36854425 0.13566686 -0.63114884 0.66093739 -0.81685625 0.95026447 0.88372433 -0.31391904 0.72213511 0.18242869 0.75237310 -0.22434878 -0.12420043 0.78635418 -0.24628440 1.00478345 -0.27051240 0.92185741 -0.31687508 -0.12835071 -0.63282432 1.25240506 0.53831951 0.08818846 -0.11052550 0.14300972 -0.36680365 -0.12909299 0.52171051 0.18934890 -0.41255915 0.41517523 0.30947782 0.68790301 -0.29286384 0.36213192 -0.60866277 -0.04794288 -0.74559969 -0.76820475 -0.34573206 0.55218605 -0.32299088 0.04538844 0.75381940 -0.21852291 0.50305891 -1.14602877 -0.70497754 -0.46675939 1.34969030 -0.46358738 0.52972610 0.63209146 0.86355079 -0.32399946 0.68388575 -0.75671391 0.65511759 0.30465079 0.68330257 -0.14833085 0.06883729 -0.56679567 -0.92535996 -0.92855523 0.62361435 0.21637615 0.65045006 0.18660589 0.13948767 -0.73559228 -1.21544765 -0.61968165 -0.33271483 -0.25153526 -0.54347789 0.13654744 -0.20182048 0.61209969 -0.74395517 -0.61758378 -0.28055253 1.40044384 1.14105112 -0.75359692 -0.88962282 -0.49241327 -0.92897947 0.61682786 0.18726988 -0.88370919 0.18395698 -0.03367254 -0.74315359 -0.00404136 0.14283333 -0.91673809 -0.32697687 -0.96178196 0.39400439 -1.40303966 -1.56516176 -1.00875984 -1.28101803 -0.85846479 0.11983249 -0.16316183 -0.63339259 0.35298414 0.67677299 -0.41942372 0.25304924 0.34639707 0.12856720 -0.79045649 0.77877206 0.51952363 -0.85242899 -0.26287752 0.96939339 0.68202017 -0.33580680 0.44973540 -0.58540391 -1.22715365 -0.78395406 -1.52949809 -0.42351377 -0.80764973 -0.87352329 -0.68272413 -1.41177606 -0.84050874 -0.74636869 0.12745237 -1.44866859 -0.21315809 0.20329336 -0.72867947 -0.68769449 0.02253371 -0.66225187 0.43940181 0.28701955 0.06839233 0.62756762 -0.37428418 0.44126303 0.93551323 0.16783312 -0.38703864 -0.58027354 -1.09658920 -0.73311036 -0.41525656 -0.24202920 -0.92177336 -0.93650038 0.01911339 -1.25245953 -2.18959915 0.06266567 -1.17164664 -0.52351551 -0.31567994 0.32805509 -0.54316553 0.17929798 -0.16338552 -0.37558405 -0.23293116 0.15286908 0.27239071 0.61529699 0.48285035 -0.70924318 0.31045078 0.15620970 0.32487224 -0.00356383 -1.60071643 -0.50435840 -0.75751527 -0.44220129 -0.61513901 -0.47477678 -0.86125317 -0.96179387 -0.14648059 -0.74982895 0.49561726 -1.27309148 -1.01364037 0.21898859 -0.40305605 0.18479643 -0.92291103 -0.47588530 -0.65359412 -0.30833622 0.24842164 0.42251899 0.42643492 -0.41603354 0.77982651 -0.25883672 -1.32750084 -1.55292403 -0.07457901 -0.69051422 0.33215872 0.89893984 -0.93542038 -0.37289946 -0.16898100 -1.14599966 -1.07265566 0.45556639 -1.46030259 -0.20584068 -1.09493526 -0.92619728 -1.29585757 -0.13460154 -0.31866635 -0.50925344 0.95167449 0.75762491 -0.92146324 -0.03549542 0.82304350 -0.26454826 -0.29491180 -0.32087190 0.02551227 -0.46987979 0.43676513 0.41151408 -0.26856867 0.69137096 -0.44025148 0.64831705 0.47110824 -0.73591301 -0.60361972 -1.06391797 -0.92440442 -1.46688456 -1.40577393 -0.38466246 -0.90732257 0.47276906 0.14324251 -0.53381033 0.76038604 0.87787695 0.40524333 -0.36985006 0.13972368 -0.05569832 -0.57072220 -0.44683449 -0.26557169 0.34424781 -0.30311318 -0.38046141 0.09615056 1.35826422 1.13025163 1.04991934 -0.27240174 -1.06369917 -0.41237130 -0.39957460 -0.65891947 -1.36717556 0.23692867 -0.84337859 -0.27906415 -0.75423439 0.79630204 0.15718157 0.61817007 0.24344389 0.51493737 0.10701087 0.34907773 0.35739832 -0.01732347 -0.32712558 -0.01458346 -0.49441062 0.40687743 0.75206115 0.56287813 0.26271080 -0.11674469 0.30602465 0.50761668 -0.54071040 -1.12451116 -1.17419950 -0.05093216 -0.36994002 -0.77634649 0.25853847 0.29409160 0.00337202 0.96089967 0.10080987 0.17474167 0.46699201 -0.90628945 0.25560697 0.89035162 -0.03240546 -0.53736795 0.09477615 0.02981655 0.42846473 0.46068197 1.18456924 0.19597212 1.53457525 0.59692191 0.15064536 1.18850809 -0.39811110 0.99531413 -0.01382169 1.42801331 0.59879966 0.06682059 0.30093621 0.55440646 -0.20323976 -0.41392294 -0.14286606 -0.57183277 -0.38456369 -0.44784893 -0.45908282 0.01805720 -0.73367547 -0.08807626 -0.22592500 1.42889340 0.36411096 0.12361761 -0.24737477 1.30738532 -0.17909989 1.56524014 0.74118660 0.52426374 0.44413669 0.11050208 1.01068997 -0.07132215 0.87742132 0.66817010 -0.17921945 0.32214247 0.40959575 1.32950156 -0.56581745 0.83594738 -0.39297976 0.70022667 -0.36435273 0.80252593 0.26715742 -0.79678171 0.44900123 1.48613612 -0.56718005 0.70255217 -0.35030437 0.90206640 0.35812528 0.23748170 0.45426530 -0.32873792 0.93385373 -0.50174604 0.33585372 0.58533355 0.22526210 -1.10260026 0.73164456 0.30592356 1.05351511 0.78396102 -0.66229177 0.57802605 -0.78134358 -0.46972878 -0.40177380 -0.95102239 0.54355322 -0.01095408 -0.80782247 0.18870742 -0.52428260 -0.15249743 -0.48960851 0.41295202 -0.46288612 0.33171923 0.12012956 -0.40871204 0.11375393 -0.27119501 0.62000506 0.20581225 -0.13584232 1.41252727 0.23168483 1.37951078 -0.07706038 -0.31239785 -0.91611559 -0.32516137 -0.83571544 -0.25144767 0.50843631 -0.87058824 -0.99432276 -0.55202894 0.30487673 0.45921800 0.17726033 -0.55291358 -0.64063758 -0.97528788 -1.26762293 -0.61130411 0.47961660 0.64434504 -0.48754396 0.04674797 0.84909697 0.31572181 0.07427961 0.13924046 -0.97472996 0.66304298 0.92185708 0.60624466 0.93150220 -0.24269243 -0.61486266 -0.45847439 0.60912887 0.87704820 -0.51309992 -0.25345389 0.72084728 0.56039282 -0.09781843 -0.54914078 -0.50961321 0.55865556 -0.71130457 -0.83094096 -0.68517835 -0.19166477 -0.25980218 0.41105402 -0.09048428 0.65156110 1.21498518 0.78643827 0.79809356 -0.93998427 0.91024020 -0.60599194 0.26704878 -0.72800702 -0.49652550 -0.62118232 0.85604703 -0.01771438 0.86795335 0.97061316 0.91804502 -0.86034368 -0.90612281 -0.25705792 -0.65661427 0.13790758 -0.33400415 0.53727379 0.35262425 -0.58251144 0.85629214 1.00535996 0.87922001 -0.72683854 -0.44924120 0.43026513 -0.32800913 0.03127557 -0.18249812 0.12858042 0.69465480 0.48689054 -0.36889024 0.60353004 -0.68116809 0.79467662 -0.59919322 0.44963239 0.00154570 0.83856351 0.00261729 0.22952972 -0.56266799 0.17063171 -0.24038949 -0.13498922 0.91827342 -0.32884730 0.77252017 0.77794518 -0.69693304 0.91178608 -0.58671014 0.98534349 -0.47081993 -0.20262595 0.24735354 -0.99087169 -0.15715298 -0.19195325 0.64103659 -0.34981551
-0.75932007 -0.37103514 -0.61796835 0.22940502 0.66825256 0.24294276 0.89928484 -0.72975927 -0.11148871 0.15909084 -0.68988606 -0.38302671 0.41534918 -0.99535624 -0.69713662 0.60223926 -0.67425863 -0.08752745 -0.06392116 0.79593191 -0.51819995 -0.02038282 -0.72430590 -0.01309697 -0.35896652 -0.82408000 -0.99433525 0.39288436 -0.22758667 -0.05854014 -0.64878388 0.99297758 0.01668802 0.22496792 -0.82088918 -0.95731621 0.12104929 -0.97826048 0.95375448 -0.20349113 0.21291929 -0.28195243 -0.40308184 -0.62777743 -0.07373025 0.09028211 0.85271875 -0.14040955 0.76066856 0.39242527 0.76683862 0.16242553 -0.97939843 -0.38476618 0.49147179 0.76942460 -0.36823098 -0.43402358 0.38309139 -0.50843271 0.66978538 0.80480972 0.57587387 -0.53877968 0.54650239 -0.71004415 -0.46414084 0.22517773 -0.01855525 -0.23427755 -0.47019803 0.58669230 0.00175799 0.11216407 -0.13795703 -0.01460152 -0.33531372 0.31615311 -0.06046872 0.82696087 0.07623525 0.86486710 -0.90400832 -0.65305108 0.27089539 -0.72198965 0.97874065 0.92531486 -0.15328110 -0.25783511 -0.73215597 -0.82798218 0.28441332 0.43932627 0.20711384 -0.63737905 0.24075821 -0.37457053 -0.10379560 0.14475038 1.06571751 0.05906728 -0.26897713 0.60980620 0.60527748 0.56201570 -0.21884561 0.13726247 -0.33948514 0.15182002 0.42276888 -0.87244593 -0.48581060 0.23521935 -0.21381906 -0.98583366 0.33181872 -0.71754295 -0.10270894 -0.45839811 -0.96028147 0.88647910 -0.27777064 -0.04545876 0.71486519 0.98341924 0.03123542 -0.73781844 0.76570639 0.00246095 1.14934089 0.78731921 0.18325788 0.47040188 -0.41089891 -0.25529312 -0.68466083 -0.96740627 -0.11479887 0.75292641 0.97858385 0.16810912 -0.10056608 0.98934710 -0.28426703 -0.24752373 -0.06559013 -0.85019774 0.66914608 -0.86982665 -1.22028980 -0.67972810 -0.05821491 -0.45375919 -1.00300324 0.81517577 -0.19357597 0.34926214 0.77620986 0.95639081 0.55176961 1.10302617 0.59931611 -0.76399342 0.35658890 0.63316202 0.74927845 -0.96431583 -0.61194491 -0.33157218 0.28521852 0.66332187 0.83381354 -0.59628140 -1.01122215 -0.76788405 0.32336186 0.78198337 0.00553908 -0.26375042 -0.58537982 -0.99132225 0.15143976 0.50510814 -0.68334041 0.40664292 -0.18602081 0.03961652 0.83876626 1.17799174 0.32946597 0.68895844 -0.30427071 0.46129800 0.12594533 -0.05440266 -0.27508328 -0.48018188 0.60934242 -0.03284307 -0.54024571 -0.84355492 0.49466040 -1.01551428 -0.06968995 -0.57014599 -0.02037558 -0.46790305 0.02667457 0.83103781 0.25799894 0.54306872 -1.26279257 -1.70653785 0.23246022 0.75721859 2.00833108 1.06882236 1.07769081 0.43741452 -0.42781371 -0.68846232 -0.99108175 -0.71008859 0.65458283 0.84048898 -0.47407425 -0.88938085 -0.81088911 0.75113653 -1.05181214 -0.80724680 0.09212918 -0.69226090 0.51639510 -0.62211023 -0.67927467 0.30738088 -0.33526417 -0.33956998 -1.62693361 -1.07990382 0.37434606 0.59037009 0.85406706 1.20270430 1.00637561 0.56647459 -0.50570032 0.10397760 -0.04352317 -0.60412843 0.34231387 -0.41294002 0.68755361 -0.81356256 -0.99999076 0.63641852 -0.35186791 -0.33264251 -0.35330896 -0.27260712 0.28222802 0.85040160 -0.50661350 0.44322176 0.17481082 -0.73233390 -1.41658431 -1.45954919 0.26414890 0.64541524 0.30608056 0.05593863 0.65534340 0.51912243 -0.51986435 0.37270672 -0.56562712 0.16866860 -0.35106759 0.85086654 0.92115392 -0.08639319 0.80769376 -1.12049051 -0.70484712 0.18495158 0.75964033 -0.72161756 0.62175966 0.29276052 -0.33733932 -0.66851471 -0.74706621 -0.87977526 -0.84021147 -0.35099269 0.04363776 1.72610401 1.02633793 0.33842804 0.69197250 -1.13703628 -0.57595747 -1.05640354 0.01947307 0.56285254 -0.24952731 -0.28938602 -0.26566753 -0.98113615 -1.01888472 -0.97641219 -0.31949400 0.17752050 0.80239228 0.49266741 -0.83005204 -0.06749127 -0.72323874 -1.17284092 -0.95685870 -0.59935282 -0.57389518 -0.23318393 -0.01291485 1.07694512 1.25601488 0.55809326 0.00215155 -0.00653280 -0.09890420 -0.87606522 -0.28884205 -0.17697149 0.46919700 0.85408072 -0.75148036 0.93284947 0.09226887 0.82087301 -0.69961384 0.36506464 -0.01009824 -0.25963621 0.35800663 -0.97294720 0.57750156 -0.73735810 -0.49195384 0.42362848 -0.57574259 0.36542877 0.14772405 1.02546883 -0.25102150 -0.37274481 -0.66317845 0.35722239 -0.71822669 0.33951086 -0.96791988 -0.48452502 0.03639036 -0.52047505 -0.43609659 0.00719901 0.76914302 -0.86435853 0.06399811 0.28962878 -0.82693142 -0.47444656 -0.51722283 -0.70994168 0.05881517 0.95800142 -0.09816953 -0.27832150 -0.61147514 0.51856893 0.29184746 -0.12077554 0.25228639 -0.39649073 0.02127195 0.24051169 -0.20896057 0.88983735 -0.42770061 -0.48848940 0.62581725 -0.89728278 0.83084502 -0.32309845 0.42602533 0.95890981 -0.27980718 -0.65309788 -0.54148947 0.32319566 -0.95053871 -0.13212565 -0.27481657 0.52436880 0.29720644 -0.77609197 -1.34307783 -0.15327917 0.13736442 0.09503960 0.52097395 -0.56939503 -0.10992127 0.05727878 0.68843784 -0.57336385 0.92351070 0.49734043 0.80355284 -0.57712343 0.55070017 -0.77075176 0.64676584 0.87086448 0.67938428 -0.62531713 -0.08313503 -0.31406920 -0.51608925 -0.46183512 -0.26514634 0.15302579 -0.66969282 0.41346300 0.88553840 1.02598470 0.39339219 -0.00091135 -1.23778095 -0.07703019 0.42596652 -0.04920685 -0.53604852 -0.83762883 -0.01424738 0.77202540 0.03402284 0.09394693 0.29709670 -0.04786563 -0.22756089 -0.20158220 -0.04243690 -0.10355013 0.83849329 0.85628270 0.50187922 -0.32907880 0.39018874 0.32059496 0.33725044 -0.34061195 0.27379851 -0.07027206 -0.58003374 0.91105531 0.62319805 -0.33062497 0.24089626 -0.98537211 -0.60949789 -0.82377393 0.52268008 0.21181575 -0.43627641 0.97156963 -0.47952759 0.92103660 0.38197965 -0.28888816 -0.17425678 -0.22615834 0.74758795 -0.51808095 0.28378194 -0.64386507 0.58566268 0.16383169 -0.60356332 -0.09405158 0.73046880 -0.95973874 0.01924898 -0.19208820 -0.58942831 0.68943097 -0.38219643 -0.08361282 0.39880912 0.13567090 0.92721628 0.63307283 0.37310155 -0.67811269 -0.04126408 -0.76096614 -0.04095473 0.82211689 -0.18313307 0.12163270 -0.04768045 -0.98899940 -0.31912935 -0.64150075 -0.86811122 -0.07088668 -0.09643014 -0.20207886 0.09888228 -0.67426338 -0.34477103 -0.99252659 0.20748509 -0.45623581 0.73197452 0.54517986 0.15642407 0.29643608 -0.52406974 0.22978843 0.44477315 0.99879452 0.18446069 -0.23904830 0.31317631 0.31258241 0.75270509 1.23486100 0.78747500 -0.03366657 -1.06054867 -0.98887082 0.39031271 -0.02214206 -0.81873592 0.63221740 0.34706043 0.45732544 0.85508797 0.49261983 0.11008956 0.50275807 -0.56787734 -0.47794372 -0.93652692 0.52210182 -0.89544856 -0.29623838 0.33670539 -0.39625713 -0.80720364 0.94343883 -0.16089783 -0.28312473 -0.28421345 0.43422603 0.15935408 0.10865240 0.37326064 -1.07927901 0.13863883 -0.03821534 -0.31363051 -0.35416196 0.39851708 -0.51546593 -0.60428449 -1.28109271 -0.72287381 -0.78162875 -0.37706510 0.11605342 0.87446473 0.37230665 -0.17161227 -0.61546547 -0.01200315 -0.50122358 -0.37802159 -0.47596561 1.05714149 0.18352200 -0.79851613 -0.37862665 0.99072694 0.25922162 -0.14550767 -1.29117853 -0.02158749 -0.25502181 -0.74840456 0.18156658 -0.56978660 0.05457331 0.28908002 -0.32920568 0.17297724 0.05133136 0.52513214 1.05326084 0.21239274 -0.57282052 -0.87550515 -0.05798480 0.79485709 -0.65100739 0.98517047 -0.57183523 -0.75695285 -0.65546109 0.42175323 0.45156165 0.53865795 0.30941672 -0.95661601 0.48670223 0.27692892 -0.42914003 -1.12563608 -0.54720471 -0.82306409 0.44066071 -0.87131719 -1.09145683 -0.64367576 0.45061211 -0.12036645 -0.76732315 0.55018490 -0.97099780 0.68696681 0.40336530 -0.69168182 0.85426221 -0.74706018 -0.22806584 0.69062736 -0.60841969 -0.68852030 -0.24322531 0.33139961 -0.70539911 0.42460069 0.81338582 -0.58135705 -0.58713365 -0.43148684 0.62655737 -0.03410108 0.17055509 -0.64326511 0.60275877 -0.07626924 0.13296384 0.07682503 0.44658404 -0.15319626 -0.98219653 0.88493749 -0.14231219 0.39574828 -0.21184594 0.45733638 0.33342196 0.09350046 0.90154543 0.90635841 -0.20339150 -0.63909173 0.56829212 0.80004957 1.00909798 -0.45718679 -0.56200788 -0.31058434 -0.92516729 0.59753329 0.12168550 -0.27863756 0.34742519 -0.26390612 0.18826168 -0.10268109 0.98913520 -0.30917427 -0.66056452 0.77056412 -0.32070037 0.39088334 -0.29174058 -0.71313660 0.20715101 0.04160405 -0.52237599 -0.06241437 0.49705684 -0.46193506 0.78093328 0.89197513 0.50933721 0.13089094 0.73791773 -0.04625249 0.47720277 -0.49737845 -0.80876830 -0.56269015 -0.53399097 0.73203641 0.52878624 0.02045658 0.75084265 0.45244490 -0.34885825 0.73477088 -0.80644961 0.62611552 0.68096567 0.80767770 -0.00274269 0.69582104 -0.76130615 -0.76981946 0.61054831 -0.78974237 -0.42012604 -0.97833215 -0.16681327 0.03078977 -0.73366564 -0.44807427 -0.25232688 -0.81654355 0.18522908 -0.27393519 -0.24875970 -0.28354425 -0.10512738 0.94529516 -0.13046663 0.70643754 0.53865216 -0.21159317 -0.49832188 0.79741781 -0.06945900 0.40808169 -0.14185199 -0.21048718 -0.34197900 0.46593064 -0.84863058 -0.02842947 0.36964733 -0.10845888 -0.89017358 -0.06671944 -0.64197410 0.51153266 -0.41829364 -0.33656581 -0.49744819 -0.76543039 -0.31715383 -0.20541719 0.47467761 0.02413019 0.03622977 -0.86451251 0.21986032 0.92276743 -0.34029127
